{"learner":{"attributes":{"scikit_learn":"{\"_estimator_type\": \"regressor\"}"},"feature_names":["Solar_Irradiation_W","Outdoor_Air_Temp_C","Outdoor_Air_Humidity_percent","Wind_Speed_ms","Wind_Direction_deg","Hour_sin","Hour_cos","DayOfWeek_sin","DayOfWeek_cos","Wind_Direction_sin","Wind_Direction_cos","HDD","CDD","Temp_Stress_x_Hour","Is_Solar_Active","Lag_24h_Load","EWMA_24h_Load","Is_Holiday","year","month","day","hour","weekday","dayofyear","is_weekend","quarter","week_of_year","season","is_peak_hour","Temp_x_Hour","Is_High_Temp","Is_Low_Temp","Lag_6h_Load","Lag_12h_Load","Lag_48h_Load","Rolling_Mean_12h","Rolling_Mean_24h","Rolling_Std_24h","Comfort_Index"],"feature_types":["float","float","float","float","float","float","float","float","float","float","float","float","float","float","int","float","float","int","int","int","int","int","int","int","int","int","int","int","int","float","int","int","float","float","float","float","float","float","float"],"gradient_booster":{"model":{"cats":{"enc":[],"feature_segments":[],"sorted_idx":[]},"gbtree_model_param":{"num_parallel_tree":"1","num_trees":"300"},"iteration_indptr":[0,1,2,3,4,5,6,7,8,9,10,11,12,13,14,15,16,17,18,19,20,21,22,23,24,25,26,27,28,29,30,31,32,33,34,35,36,37,38,39,40,41,42,43,44,45,46,47,48,49,50,51,52,53,54,55,56,57,58,59,60,61,62,63,64,65,66,67,68,69,70,71,72,73,74,75,76,77,78,79,80,81,82,83,84,85,86,87,88,89,90,91,92,93,94,95,96,97,98,99,100,101,102,103,104,105,106,107,108,109,110,111,112,113,114,115,116,117,118,119,120,121,122,123,124,125,126,127,128,129,130,131,132,133,134,135,136,137,138,139,140,141,142,143,144,145,146,147,148,149,150,151,152,153,154,155,156,157,158,159,160,161,162,163,164,165,166,167,168,169,170,171,172,173,174,175,176,177,178,179,180,181,182,183,184,185,186,187,188,189,190,191,192,193,194,195,196,197,198,199,200,201,202,203,204,205,206,207,208,209,210,211,212,213,214,215,216,217,218,219,220,221,222,223,224,225,226,227,228,229,230,231,232,233,234,235,236,237,238,239,240,241,242,243,244,245,246,247,248,249,250,251,252,253,254,255,256,257,258,259,260,261,262,263,264,265,266,267,268,269,270,271,272,273,274,275,276,277,278,279,280,281,282,283,284,285,286,287,288,289,290,291,292,293,294,295,296,297,298,299,300],"tree_info":[0,0,0,0,0,0,0,0,0,0,0,0,0,0,0,0,0,0,0,0,0,0,0,0,0,0,0,0,0,0,0,0,0,0,0,0,0,0,0,0,0,0,0,0,0,0,0,0,0,0,0,0,0,0,0,0,0,0,0,0,0,0,0,0,0,0,0,0,0,0,0,0,0,0,0,0,0,0,0,0,0,0,0,0,0,0,0,0,0,0,0,0,0,0,0,0,0,0,0,0,0,0,0,0,0,0,0,0,0,0,0,0,0,0,0,0,0,0,0,0,0,0,0,0,0,0,0,0,0,0,0,0,0,0,0,0,0,0,0,0,0,0,0,0,0,0,0,0,0,0,0,0,0,0,0,0,0,0,0,0,0,0,0,0,0,0,0,0,0,0,0,0,0,0,0,0,0,0,0,0,0,0,0,0,0,0,0,0,0,0,0,0,0,0,0,0,0,0,0,0,0,0,0,0,0,0,0,0,0,0,0,0,0,0,0,0,0,0,0,0,0,0,0,0,0,0,0,0,0,0,0,0,0,0,0,0,0,0,0,0,0,0,0,0,0,0,0,0,0,0,0,0,0,0,0,0,0,0,0,0,0,0,0,0,0,0,0,0,0,0,0,0,0,0,0,0,0,0,0,0,0,0,0,0,0,0,0,0,0,0,0,0,0,0,0,0,0,0,0,0],"trees":[{"base_weights":[5.2481584E-2,-4.130448E2,3.318948E2,1.7164957E2,-4.7404343E2,-1.0657033E2,5.3452454E2,-2.235298E2,4.1648898E2,-6.129965E2,-3.587394E2,-2.1876915E2,9.516571E1,7.4316455E2,2.1298273E2,-5.496978E2,-8.378492E1,3.05707E2,6.0277075E2,-7.427417E2,-5.655168E2,-2.5467018E2,-4.0891556E2,-3.8388837E2,-1.5708537E2,-6.097914E1,2.8643347E2,4.4419482E2,1.0039032E3,8.570971E1,5.284517E2,-6.5771375E2,-4.2012375E2,-4.3566284E2,-2.8026836E1,2.2783043E2,3.9626758E2,4.1253635E2,7.045226E2,-8.4182916E2,-6.9880426E2,-5.884836E2,-4.6954874E2,-3.857241E2,-1.3941995E2,-4.6297037E2,-3.4753244E2,-4.853741E2,-3.2034048E2,-2.7491547E2,-8.436987E1,-1.8708936E2,6.664428E0,2.1571877E2,4.6391556E2,1.8381837E2,5.587492E2,8.9980396E2,1.2591797E3,-2.330412E1,2.7825067E2,4.2053973E2,7.369566E2,-3.503671E1,-2.7054052E1,-1.1733154E1,-2.336772E1,-2.8106861E1,-1.8598967E1,-2.9882503E-1,-2.9583899E1,-1.020798E1,1.2165381E1,2.2141386E1,1.2351836E1,7.3422847E0,2.2094915E1,3.791174E1,2.6108606E1,-4.3905888E1,-4.026666E1,-3.556137E1,-2.8036005E1,-3.1318619E1,-2.790538E1,1.2944959E1,-2.3896755E1,-2.1461039E1,-1.5048032E1,-1.0909211E1,-1.5084558E0,-2.7347702E1,-2.1862795E1,-2.0815136E1,-1.4959328E1,-3.0386173E1,-2.2762383E1,-1.5479057E1,-2.3226572E1,8.053889E-1,-1.4144439E1,-8.161818E0,-6.3862604E-1,-1.3634643E1,-7.3524857E0,-2.290488E0,2.968396E0,7.4306283E0,1.5158679E1,2.6893385E1,1.9041866E1,-1.8129185E0,1.3737238E1,3.0230978E1,1.8466917E1,4.7570507E1,3.289169E1,5.5404743E1,7.024364E1,-6.237118E0,5.252956E0,-6.911063E-2,1.7682322E1,1.8489927E1,3.7743786E1,3.3374176E1,4.7758842E1],"categories":[],"categories_nodes":[],"categories_segments":[],"categories_sizes":[],"default_left":[0,0,0,0,0,0,0,0,0,0,0,0,0,0,0,0,0,0,0,0,0,0,0,0,0,0,0,0,0,0,0,0,0,0,0,0,0,0,0,0,0,0,0,0,0,0,0,0,0,0,0,0,0,0,0,0,0,0,0,0,0,0,0,0,0,0,0,0,0,0,0,0,0,0,0,0,0,0,0,0,0,0,0,0,0,0,0,0,0,0,0,0,0,0,0,0,0,0,0,0,0,0,0,0,0,0,0,0,0,0,0,0,0,0,0,0,0,0,0,0,0,0,0,0,0,0,0],"id":0,"left_children":[1,3,5,7,9,11,13,15,17,19,21,23,25,27,29,31,33,35,37,39,41,43,45,47,49,51,53,55,57,59,61,63,65,67,69,71,73,75,77,79,81,83,85,87,89,91,93,95,97,99,101,103,105,107,109,111,113,115,117,119,121,123,125,-1,-1,-1,-1,-1,-1,-1,-1,-1,-1,-1,-1,-1,-1,-1,-1,-1,-1,-1,-1,-1,-1,-1,-1,-1,-1,-1,-1,-1,-1,-1,-1,-1,-1,-1,-1,-1,-1,-1,-1,-1,-1,-1,-1,-1,-1,-1,-1,-1,-1,-1,-1,-1,-1,-1,-1,-1,-1,-1,-1,-1,-1,-1,-1],"loss_changes":[1.6434764E10,1.9048366E9,5.9068104E9,4.883213E8,7.74612E8,4.7566317E8,3.0502636E9,8.796951E7,6.411955E7,1.3467443E8,1.3791846E8,1.3748026E8,2.2433706E8,2.1491855E9,7.184514E8,7.827392E6,2.6533702E7,1.3704496E7,2.2182496E7,2.4976384E7,3.5119104E7,1.2985574E8,5.900672E7,2.352608E7,8.422667E7,3.528358E7,4.227072E7,3.8311782E8,3.902761E8,2.6766622E8,1.1543091E8,1.196368E6,2.220336E6,1.280952E6,1.452561E7,7.096724E6,6.164848E6,3.1102E6,6.998912E6,1.675392E6,6.589952E6,1.4559232E7,1.9098432E7,1.4707008E7,3.9387384E7,2.0231424E7,2.7650496E7,4.927872E6,3.363888E6,8.710752E6,3.434073E7,4.90926E6,7.4504065E6,1.4133872E7,5.699376E6,7.85923E7,7.729408E7,1.3006438E8,9.230234E7,1.0604262E8,9.719376E7,5.7264896E7,2.5938688E7,0E0,0E0,0E0,0E0,0E0,0E0,0E0,0E0,0E0,0E0,0E0,0E0,0E0,0E0,0E0,0E0,0E0,0E0,0E0,0E0,0E0,0E0,0E0,0E0,0E0,0E0,0E0,0E0,0E0,0E0,0E0,0E0,0E0,0E0,0E0,0E0,0E0,0E0,0E0,0E0,0E0,0E0,0E0,0E0,0E0,0E0,0E0,0E0,0E0,0E0,0E0,0E0,0E0,0E0,0E0,0E0,0E0,0E0,0E0,0E0,0E0,0E0,0E0,0E0],"parents":[2147483647,0,0,1,1,2,2,3,3,4,4,5,5,6,6,7,7,8,8,9,9,10,10,11,11,12,12,13,13,14,14,15,15,16,16,17,17,18,18,19,19,20,20,21,21,22,22,23,23,24,24,25,25,26,26,27,27,28,28,29,29,30,30,31,31,32,32,33,33,34,34,35,35,36,36,37,37,38,38,39,39,40,40,41,41,42,42,43,43,44,44,45,45,46,46,47,47,48,48,49,49,50,50,51,51,52,52,53,53,54,54,55,55,56,56,57,57,58,58,59,59,60,60,61,61,62,62],"right_children":[2,4,6,8,10,12,14,16,18,20,22,24,26,28,30,32,34,36,38,40,42,44,46,48,50,52,54,56,58,60,62,64,66,68,70,72,74,76,78,80,82,84,86,88,90,92,94,96,98,100,102,104,106,108,110,112,114,116,118,120,122,124,126,-1,-1,-1,-1,-1,-1,-1,-1,-1,-1,-1,-1,-1,-1,-1,-1,-1,-1,-1,-1,-1,-1,-1,-1,-1,-1,-1,-1,-1,-1,-1,-1,-1,-1,-1,-1,-1,-1,-1,-1,-1,-1,-1,-1,-1,-1,-1,-1,-1,-1,-1,-1,-1,-1,-1,-1,-1,-1,-1,-1,-1,-1,-1,-1],"split_conditions":[1.296E3,-2.5881904E-1,-4.3388373E-1,1.120106E3,1.018E3,2.2E3,-2.5881904E-1,1.2618401E2,1.402445E3,8.4E2,2E0,1.1738727E3,1.4860255E3,1.5737756E3,1.778E3,8.893117E2,-4.3388373E-1,1.2747638E3,4.8556424E2,7.22E2,1.6496666E3,7E0,1.15E3,1.0392656E3,1.622E3,1.2897076E3,1.7204678E3,1.2972833E3,1.9095892E3,6.234898E-1,2.11E3,4E0,9E0,9.1031244E2,3.63E2,-4.3388373E-1,-5E-1,3.53328E2,-5E-1,6.6E2,1.5901666E3,9.26E2,1.314E3,1.154E3,1.184E3,1.330218E3,-4.3388373E-1,8.893117E2,5E-1,-5E-1,1.3616094E3,1.1884286E3,1.3886736E3,2.71E1,-5E-1,1.1429958E3,-5E-1,-5E-1,1.228E3,1.522E3,4.7452884E2,6.234898E-1,2.418E3,-3.503671E1,-2.7054052E1,-1.1733154E1,-2.336772E1,-2.8106861E1,-1.8598967E1,-2.9882503E-1,-2.9583899E1,-1.020798E1,1.2165381E1,2.2141386E1,1.2351836E1,7.3422847E0,2.2094915E1,3.791174E1,2.6108606E1,-4.3905888E1,-4.026666E1,-3.556137E1,-2.8036005E1,-3.1318619E1,-2.790538E1,1.2944959E1,-2.3896755E1,-2.1461039E1,-1.5048032E1,-1.0909211E1,-1.5084558E0,-2.7347702E1,-2.1862795E1,-2.0815136E1,-1.4959328E1,-3.0386173E1,-2.2762383E1,-1.5479057E1,-2.3226572E1,8.053889E-1,-1.4144439E1,-8.161818E0,-6.3862604E-1,-1.3634643E1,-7.3524857E0,-2.290488E0,2.968396E0,7.4306283E0,1.5158679E1,2.6893385E1,1.9041866E1,-1.8129185E0,1.3737238E1,3.0230978E1,1.8466917E1,4.7570507E1,3.289169E1,5.5404743E1,7.024364E1,-6.237118E0,5.252956E0,-6.911063E-2,1.7682322E1,1.8489927E1,3.7743786E1,3.3374176E1,4.7758842E1],"split_indices":[34,6,7,16,34,34,6,37,16,34,22,16,16,16,34,16,7,16,37,34,35,21,34,16,34,16,16,16,16,8,34,23,21,16,23,7,6,37,6,34,35,34,33,34,34,16,7,16,6,6,16,16,16,1,6,16,6,6,33,34,37,8,34,0,0,0,0,0,0,0,0,0,0,0,0,0,0,0,0,0,0,0,0,0,0,0,0,0,0,0,0,0,0,0,0,0,0,0,0,0,0,0,0,0,0,0,0,0,0,0,0,0,0,0,0,0,0,0,0,0,0,0,0,0,0,0,0],"split_type":[0,0,0,0,0,0,0,0,0,0,0,0,0,0,0,0,0,0,0,0,0,0,0,0,0,0,0,0,0,0,0,0,0,0,0,0,0,0,0,0,0,0,0,0,0,0,0,0,0,0,0,0,0,0,0,0,0,0,0,0,0,0,0,0,0,0,0,0,0,0,0,0,0,0,0,0,0,0,0,0,0,0,0,0,0,0,0,0,0,0,0,0,0,0,0,0,0,0,0,0,0,0,0,0,0,0,0,0,0,0,0,0,0,0,0,0,0,0,0,0,0,0,0,0,0,0,0],"sum_hessian":[1.19887E5,5.3405E4,6.6482E4,5.045E3,4.836E4,2.1013E4,4.5469E4,1.93E3,3.115E3,2.1929E4,2.6431E4,1.3503E4,7.51E3,2.7575E4,1.7894E4,5.78E2,1.352E3,1.955E3,1.16E3,5.871E3,1.6058E4,8.6E3,1.7831E4,3.671E3,9.832E3,4.135E3,3.375E3,1.2847E4,1.4728E4,1.2751E4,5.143E3,3.13E2,2.65E2,1.84E2,1.168E3,1.053E3,9.02E2,4.06E2,7.54E2,1.798E3,4.073E3,1.2953E4,3.105E3,4.023E3,4.577E3,9.478E3,8.353E3,1.411E3,2.26E3,3.751E3,6.081E3,1.443E3,2.692E3,2.415E3,9.6E2,3.926E3,8.921E3,1.0465E4,4.263E3,8.142E3,4.609E3,3.391E3,1.752E3,2.25E2,8.8E1,5.5E1,2.1E2,5.9E1,1.25E2,1.125E3,4.3E1,3.6E1,1.017E3,6.86E2,2.16E2,4.1E1,3.65E2,5.8E2,1.74E2,8.9E2,9.08E2,3.733E3,3.4E2,5.755E3,7.198E3,3.5E1,3.07E3,2.656E3,1.367E3,2.659E3,1.918E3,2.217E3,7.261E3,3.445E3,4.908E3,2.75E2,1.136E3,2.106E3,1.54E2,1E2,3.651E3,2.893E3,3.188E3,4.58E2,9.85E2,1.349E3,1.343E3,1.368E3,1.047E3,5.05E2,4.55E2,1.148E3,2.778E3,7.18E3,1.741E3,8.623E3,1.842E3,2.097E3,2.166E3,4.548E3,3.594E3,9.79E2,3.63E3,2.946E3,4.45E2,1.332E3,4.2E2],"tree_param":{"num_deleted":"0","num_feature":"39","num_nodes":"127","size_leaf_vector":"1"}},{"base_weights":[-6.8876225E-1,-3.9533005E2,3.094739E2,1.5646152E2,-4.520913E2,5.0085156E2,-1.02865944E2,-2.5197551E2,3.6962024E2,-5.820046E2,-3.4350034E2,7.032427E2,1.9643442E2,-2.1132991E2,8.779878E1,-5.390475E2,-1.0190568E2,2.3748944E2,5.3964124E2,-7.0598126E2,-5.370165E2,-3.904826E2,-2.0441292E2,4.0729617E2,9.4052466E2,3.8131097E2,-9.8764105E-3,-3.780714E2,-1.5736456E2,-6.361434E1,2.7061633E2,-6.3541943E2,-4.0852383E2,-5.332826E1,-4.116759E2,2.5215312E2,-2.23052E2,4.0866934E2,6.752949E2,-7.97863E2,-6.647616E2,-5.549645E2,-4.0402573E2,-4.3952435E2,-3.4107898E2,-2.3448202E1,-2.7927786E2,1.2220917E2,4.9896625E2,8.453508E2,1.2177014E3,1.6640889E2,5.7768854E2,-6.9816635E1,2.6405804E2,-4.7967236E2,-3.2673352E2,-2.60534E2,-8.807936E1,-1.823907E2,3.4179015E0,1.8833812E2,4.0287955E2,-3.6368813E1,-2.9044285E1,-2.2899445E1,-1.1449214E1,-1.610493E0,-2.6423965E1,-2.354239E1,-1.557137E1,1.4878102E1,5.9539294E0,2.3931097E1,-1.28634815E1,1.5633487E1,2.3634298E1,3.657738E1,2.4915562E1,-4.1601223E1,-3.8138805E1,-3.3949566E1,-2.703385E1,-2.8777557E1,-2.4933363E1,-5.892418E0,-2.244836E1,-2.05754E1,-2.5052038E1,-1.4843856E1,-2.0618116E1,1.2309006E1,-3.4023843E0,-1.6077621E1,-9.153156E0,-6.992312E0,9.1640005E0,1.5701358E1,2.719441E1,3.6174133E1,4.650865E1,6.516845E1,4.4849663E1,1.579675E-1,1.3048133E1,3.9100964E1,2.3844435E1,-6.220344E0,2.3485754E0,1.6460243E1,4.835431E0,-2.8975672E1,-2.2356161E1,-1.8522833E1,-1.4869155E1,-1.5864333E1,-1.0901362E1,-8.28173E0,-6.705293E-1,-1.5905974E1,-7.730535E0,-2.0829737E0,2.8680995E0,6.561288E0,1.349129E1,1.5421913E1,2.3192106E1],"categories":[],"categories_nodes":[],"categories_segments":[],"categories_sizes":[],"default_left":[0,0,0,0,0,0,0,0,0,0,0,0,0,0,0,0,0,0,0,0,0,0,0,0,0,0,0,0,0,0,0,0,0,0,0,0,0,0,0,0,0,0,0,0,0,0,0,0,0,0,0,0,0,0,0,0,0,0,0,0,0,0,0,0,0,0,0,0,0,0,0,0,0,0,0,0,0,0,0,0,0,0,0,0,0,0,0,0,0,0,0,0,0,0,0,0,0,0,0,0,0,0,0,0,0,0,0,0,0,0,0,0,0,0,0,0,0,0,0,0,0,0,0,0,0,0,0],"id":1,"left_children":[1,3,5,7,9,11,13,15,17,19,21,23,25,27,29,31,33,35,37,39,41,43,45,47,49,51,53,55,57,59,61,63,65,67,69,71,73,75,77,79,81,83,85,87,89,91,93,95,97,99,101,103,105,107,109,111,113,115,117,119,121,123,125,-1,-1,-1,-1,-1,-1,-1,-1,-1,-1,-1,-1,-1,-1,-1,-1,-1,-1,-1,-1,-1,-1,-1,-1,-1,-1,-1,-1,-1,-1,-1,-1,-1,-1,-1,-1,-1,-1,-1,-1,-1,-1,-1,-1,-1,-1,-1,-1,-1,-1,-1,-1,-1,-1,-1,-1,-1,-1,-1,-1,-1,-1,-1,-1],"loss_changes":[1.4741116E10,1.659988E9,5.3213665E9,4.3052723E8,6.7773235E8,2.8374958E9,4.4210032E8,7.301017E7,7.286064E7,1.2164454E8,1.7098394E8,1.9422587E9,6.680322E8,1.2255085E8,2.1460014E8,7.061296E6,1.6756385E7,1.2414656E7,2.4952896E7,2.151936E7,3.810253E7,4.7257856E7,8.957222E7,3.217001E8,4.0398234E8,3.9980966E8,1.6442885E8,1.7217664E7,7.357402E7,3.376681E7,3.814304E7,1.247392E6,2.11536E6,9.666202E6,7.49082E5,1.068444E7,1.4916835E6,4.307752E6,6.564704E6,1.520512E6,6.739712E6,1.6106496E7,2.4550656E7,1.6711296E7,3.0604672E7,2.32977E7,1.8964544E7,4.7989452E7,7.722496E7,1.1750093E8,1.065856E8,6.986186E7,1.0160038E8,4.4984948E7,2.0300904E7,3.3676E6,2.7336E6,9.908416E6,3.567584E7,5.719748E6,6.5970455E6,1.0049712E7,7.606368E6,0E0,0E0,0E0,0E0,0E0,0E0,0E0,0E0,0E0,0E0,0E0,0E0,0E0,0E0,0E0,0E0,0E0,0E0,0E0,0E0,0E0,0E0,0E0,0E0,0E0,0E0,0E0,0E0,0E0,0E0,0E0,0E0,0E0,0E0,0E0,0E0,0E0,0E0,0E0,0E0,0E0,0E0,0E0,0E0,0E0,0E0,0E0,0E0,0E0,0E0,0E0,0E0,0E0,0E0,0E0,0E0,0E0,0E0,0E0,0E0,0E0,0E0,0E0,0E0],"parents":[2147483647,0,0,1,1,2,2,3,3,4,4,5,5,6,6,7,7,8,8,9,9,10,10,11,11,12,12,13,13,14,14,15,15,16,16,17,17,18,18,19,19,20,20,21,21,22,22,23,23,24,24,25,25,26,26,27,27,28,28,29,29,30,30,31,31,32,32,33,33,34,34,35,35,36,36,37,37,38,38,39,39,40,40,41,41,42,42,43,43,44,44,45,45,46,46,47,47,48,48,49,49,50,50,51,51,52,52,53,53,54,54,55,55,56,56,57,57,58,58,59,59,60,60,61,61,62,62],"right_children":[2,4,6,8,10,12,14,16,18,20,22,24,26,28,30,32,34,36,38,40,42,44,46,48,50,52,54,56,58,60,62,64,66,68,70,72,74,76,78,80,82,84,86,88,90,92,94,96,98,100,102,104,106,108,110,112,114,116,118,120,122,124,126,-1,-1,-1,-1,-1,-1,-1,-1,-1,-1,-1,-1,-1,-1,-1,-1,-1,-1,-1,-1,-1,-1,-1,-1,-1,-1,-1,-1,-1,-1,-1,-1,-1,-1,-1,-1,-1,-1,-1,-1,-1,-1,-1,-1,-1,-1,-1,-1,-1,-1,-1,-1,-1,-1,-1,-1,-1,-1,-1,-1,-1,-1,-1,-1],"split_conditions":[1.29E3,-2.5881904E-1,1E0,1.0874514E3,1.018E3,-2.5881904E-1,2.186E3,1.2618401E2,1.3547515E3,8.4E2,1.912E3,1.5563397E3,-8.660254E-1,1.1535587E3,1.4830635E3,8.893117E2,1E0,1E0,5.1321625E2,7.22E2,1.748E3,1.126E3,-5E-1,1.2560126E3,1.92425E3,1.66525E3,2.648E3,1.0117007E3,1.64E3,1.2897076E3,1.673952E3,8.3E2,9.96E2,3.63E2,9.3E2,-5E-1,2.5E0,4.338193E2,-5E-1,6.6E2,1.5638334E3,1.5401666E3,-5E-1,1E0,1E0,6.123234E-17,2.1755E3,1.0720376E3,-2.5881904E-1,1.696E3,7.0710677E-1,1.6048315E3,-1.8369701E-16,1.5E3,-5E-1,8.893117E2,1.0797766E3,1.418E3,1.3547515E3,1.1376813E3,1.395414E3,2.7E1,2.646E3,-3.6368813E1,-2.9044285E1,-2.2899445E1,-1.1449214E1,-1.610493E0,-2.6423965E1,-2.354239E1,-1.557137E1,1.4878102E1,5.9539294E0,2.3931097E1,-1.28634815E1,1.5633487E1,2.3634298E1,3.657738E1,2.4915562E1,-4.1601223E1,-3.8138805E1,-3.3949566E1,-2.703385E1,-2.8777557E1,-2.4933363E1,-5.892418E0,-2.244836E1,-2.05754E1,-2.5052038E1,-1.4843856E1,-2.0618116E1,1.2309006E1,-3.4023843E0,-1.6077621E1,-9.153156E0,-6.992312E0,9.1640005E0,1.5701358E1,2.719441E1,3.6174133E1,4.650865E1,6.516845E1,4.4849663E1,1.579675E-1,1.3048133E1,3.9100964E1,2.3844435E1,-6.220344E0,2.3485754E0,1.6460243E1,4.835431E0,-2.8975672E1,-2.2356161E1,-1.8522833E1,-1.4869155E1,-1.5864333E1,-1.0901362E1,-8.28173E0,-6.705293E-1,-1.5905974E1,-7.730535E0,-2.0829737E0,2.8680995E0,6.561288E0,1.349129E1,1.5421913E1,2.3192106E1],"split_indices":[34,6,24,16,34,6,34,37,16,34,32,16,5,16,16,16,24,24,37,34,32,34,5,16,36,36,32,16,34,16,16,34,33,23,35,6,13,37,6,34,35,36,5,24,24,6,35,16,5,36,5,16,6,34,5,16,16,34,16,16,16,1,34,0,0,0,0,0,0,0,0,0,0,0,0,0,0,0,0,0,0,0,0,0,0,0,0,0,0,0,0,0,0,0,0,0,0,0,0,0,0,0,0,0,0,0,0,0,0,0,0,0,0,0,0,0,0,0,0,0,0,0,0,0,0,0,0],"split_type":[0,0,0,0,0,0,0,0,0,0,0,0,0,0,0,0,0,0,0,0,0,0,0,0,0,0,0,0,0,0,0,0,0,0,0,0,0,0,0,0,0,0,0,0,0,0,0,0,0,0,0,0,0,0,0,0,0,0,0,0,0,0,0,0,0,0,0,0,0,0,0,0,0,0,0,0,0,0,0,0,0,0,0,0,0,0,0,0,0,0,0,0,0,0,0,0,0,0,0,0,0,0,0,0,0,0,0,0,0,0,0,0,0,0,0,0,0,0,0,0,0,0,0,0,0,0,0],"sum_hessian":[1.20429E5,5.2997E4,6.7432E4,4.943E3,4.8054E4,4.6056E4,2.1376E4,1.695E3,3.248E3,2.1877E4,2.6177E4,2.7663E4,1.8393E4,1.3625E4,7.751E3,5.81E2,1.114E3,1.829E3,1.419E3,5.821E3,1.6056E4,1.9566E4,6.611E3,1.2311E4,1.5352E4,9.475E3,8.918E3,3.33E3,1.0295E4,4.24E3,3.511E3,3.32E2,2.49E2,9.64E2,1.5E2,1.773E3,5.6E1,7.24E2,6.95E2,1.797E3,4.024E3,1.4144E4,1.912E3,9.815E3,9.751E3,1.935E3,4.676E3,2.996E3,9.315E3,1.1431E4,3.921E3,4.525E3,4.95E3,7.054E3,1.864E3,1.115E3,2.215E3,4.135E3,6.16E3,1.529E3,2.711E3,2.166E3,1.345E3,1.19E2,2.13E2,1.94E2,5.5E1,9.24E2,4E1,9.2E1,5.8E1,1.321E3,4.52E2,2E0,5.4E1,2.92E2,4.32E2,5.25E2,1.7E2,8.99E2,8.98E2,3.606E3,4.18E2,1.035E4,3.794E3,2.6E2,1.652E3,6.749E3,3.066E3,6.022E3,3.729E3,2.74E2,1.661E3,3.247E3,1.429E3,5.66E2,2.43E3,1.822E3,7.493E3,4.695E3,6.736E3,3.092E3,8.29E2,1.66E3,2.865E3,1.633E3,3.317E3,4.807E3,2.247E3,1.341E3,5.23E2,2.7E2,8.45E2,8.85E2,1.33E3,1.768E3,2.367E3,3.021E3,3.139E3,2.58E2,1.271E3,1.477E3,1.234E3,1.275E3,8.91E2,5.3E2,8.15E2],"tree_param":{"num_deleted":"0","num_feature":"39","num_nodes":"127","size_leaf_vector":"1"}},{"base_weights":[-7.7832067E-1,-3.4230765E2,3.805999E2,-4.953429E2,-1.6314561E2,2.073694E2,7.3409705E2,-6.1040796E2,-4.254807E2,-2.6475903E2,1.8906357E2,3.235464E2,-6.998338E1,8.7858325E2,1.6330641E2,-7.2713947E2,-5.720386E2,-9.561181E1,-4.4917438E2,-3.170368E2,-1.9025658E2,4.958604E2,-6.839202E1,2.6256943E2,6.948091E2,-1.9462263E2,7.937496E0,7.669125E2,1.1607635E3,3.8145947E1,3.606324E2,-7.8101697E2,-6.860132E2,-3.219989E2,-5.8345245E2,-3.2486578E2,2.1858287E2,-4.9190244E2,-4.0936777E2,-2.8872736E2,-3.6139337E2,-1.372309E2,-2.580686E2,2.4851591E2,6.195321E2,-1.9154028E2,1.2596602E2,1.05537415E2,4.195243E2,8.233784E2,3.377056E2,-2.995169E2,-1.5681935E2,-3.6199345E1,1.897963E2,6.835384E2,8.6920496E2,1.0621893E3,1.336209E3,-5.6342487E1,9.7690735E1,2.9140863E2,4.7459952E2,-3.3632473E1,-3.9435787E1,-2.6810083E1,-3.4602947E1,-2.5333971E1,4.2799315E0,-3.1158802E1,-2.7906202E1,-5.4351406E0,-2.437802E1,-5.17008E0,1.4101748E1,-2.232774E1,-2.5598417E1,-1.7905739E1,-2.1527622E1,1.7919874E0,-1.517662E1,-1.91033E1,-1.5771052E1,5.839565E0,-8.270433E0,-1.9050114E1,-1.2057029E1,1.5898272E1,-3.1069524E0,2.6820042E1,3.5900154E1,-1.5043731E1,-5.607799E0,-1.6137785E0,1.0124348E1,4.5820123E-1,8.606234E0,1.6594824E1,2.4943205E1,2.3108747E1,4.6598957E1,5.954354E0,2.0852085E1,-1.8975561E1,-1.3679071E1,-9.677049E0,-6.2615423E0,-6.6883416E0,6.126849E-1,1.8572218E0,1.211049E1,2.4745344E1,3.5095074E1,2.6060963E1,4.396266E1,4.4567913E1,5.5165646E1,6.09477E1,6.916649E1,-6.7352114E0,-7.564975E-1,3.557008E0,9.6771345E0,1.0704021E1,1.7639446E1,2.753417E1,1.9351675E1],"categories":[],"categories_nodes":[],"categories_segments":[],"categories_sizes":[],"default_left":[0,0,0,0,0,0,0,0,0,0,0,0,0,0,0,0,0,0,0,0,0,0,0,0,0,0,0,0,0,0,0,0,0,0,0,0,0,0,0,0,0,0,0,0,0,0,0,0,0,0,0,0,0,0,0,0,0,0,0,0,0,0,0,0,0,0,0,0,0,0,0,0,0,0,0,0,0,0,0,0,0,0,0,0,0,0,0,0,0,0,0,0,0,0,0,0,0,0,0,0,0,0,0,0,0,0,0,0,0,0,0,0,0,0,0,0,0,0,0,0,0,0,0,0,0,0,0],"id":2,"left_children":[1,3,5,7,9,11,13,15,17,19,21,23,25,27,29,31,33,35,37,39,41,43,45,47,49,51,53,55,57,59,61,63,65,67,69,71,73,75,77,79,81,83,85,87,89,91,93,95,97,99,101,103,105,107,109,111,113,115,117,119,121,123,125,-1,-1,-1,-1,-1,-1,-1,-1,-1,-1,-1,-1,-1,-1,-1,-1,-1,-1,-1,-1,-1,-1,-1,-1,-1,-1,-1,-1,-1,-1,-1,-1,-1,-1,-1,-1,-1,-1,-1,-1,-1,-1,-1,-1,-1,-1,-1,-1,-1,-1,-1,-1,-1,-1,-1,-1,-1,-1,-1,-1,-1,-1,-1,-1],"loss_changes":[1.5661484E10,1.7391596E9,3.478447E9,2.747515E8,1.04595296E9,1.2284869E9,1.5405875E9,5.7460736E7,1.6635546E8,8.827814E7,5.16922E8,6.081134E8,1.0931982E8,4.688804E8,9.321898E7,6.539136E6,2.7580928E7,1.0293038E8,3.3583104E7,1.6630528E7,3.3603104E7,9.118624E7,8.520828E7,5.688316E8,1.7373056E8,1.7122976E7,5.5607628E7,9.052467E7,7.164928E7,1.3007868E7,1.1419408E7,6.16576E5,1.27648E6,3.2185928E7,9.013248E6,2.8996216E7,1.234881E7,8.484096E6,1.1017344E7,3.912544E7,4.809984E6,3.761195E7,8.44864E6,2.152986E7,1.5905088E7,1.887872E7,1.672878E7,7.4046936E7,8.008563E7,1.0885555E8,1.73814E7,2.273784E6,3.670304E6,2.6357126E7,1.081638E7,2.0058112E7,1.630464E7,1.8054656E7,6.690048E6,2.8851222E6,3.594934E6,4.262704E6,3.464496E6,0E0,0E0,0E0,0E0,0E0,0E0,0E0,0E0,0E0,0E0,0E0,0E0,0E0,0E0,0E0,0E0,0E0,0E0,0E0,0E0,0E0,0E0,0E0,0E0,0E0,0E0,0E0,0E0,0E0,0E0,0E0,0E0,0E0,0E0,0E0,0E0,0E0,0E0,0E0,0E0,0E0,0E0,0E0,0E0,0E0,0E0,0E0,0E0,0E0,0E0,0E0,0E0,0E0,0E0,0E0,0E0,0E0,0E0,0E0,0E0,0E0,0E0,0E0,0E0],"parents":[2147483647,0,0,1,1,2,2,3,3,4,4,5,5,6,6,7,7,8,8,9,9,10,10,11,11,12,12,13,13,14,14,15,15,16,16,17,17,18,18,19,19,20,20,21,21,22,22,23,23,24,24,25,25,26,26,27,27,28,28,29,29,30,30,31,31,32,32,33,33,34,34,35,35,36,36,37,37,38,38,39,39,40,40,41,41,42,42,43,43,44,44,45,45,46,46,47,47,48,48,49,49,50,50,51,51,52,52,53,53,54,54,55,55,56,56,57,57,58,58,59,59,60,60,61,61,62,62],"right_children":[2,4,6,8,10,12,14,16,18,20,22,24,26,28,30,32,34,36,38,40,42,44,46,48,50,52,54,56,58,60,62,64,66,68,70,72,74,76,78,80,82,84,86,88,90,92,94,96,98,100,102,104,106,108,110,112,114,116,118,120,122,124,126,-1,-1,-1,-1,-1,-1,-1,-1,-1,-1,-1,-1,-1,-1,-1,-1,-1,-1,-1,-1,-1,-1,-1,-1,-1,-1,-1,-1,-1,-1,-1,-1,-1,-1,-1,-1,-1,-1,-1,-1,-1,-1,-1,-1,-1,-1,-1,-1,-1,-1,-1,-1,-1,-1,-1,-1,-1,-1,-1,-1,-1,-1,-1,-1],"split_conditions":[1.424E3,1.114E3,2.2E3,9.26E2,1E0,5E0,5E0,7.76E2,-2.5881904E-1,1.27E3,-2.5881904E-1,1E0,1.3083903E3,2.646E3,1.6048315E3,6.94E2,-2.5881904E-1,1.02120483E3,1.018E3,5E0,5E0,1.2356836E3,1E0,1.818E3,-1.8369701E-16,1.1640671E3,2.82E1,2.418E3,2.912E3,1.4399076E3,1.790289E3,6.123234E-17,-2.5881904E-1,1.7600757E2,8.56E2,2E0,1.7829367E2,2E0,2E0,-2.5881904E-1,2.2E1,-2.5881904E-1,1.0641653E3,1.2E1,1.423044E3,6E0,4.7880695E2,1.588E3,1.998E3,1.4697853E3,5.4104236E2,1.0477098E3,6.234898E-1,1.808E3,2.042E3,4.9841446E2,5.2280194E2,1.7710798E3,2.93E1,1.3510142E3,2.59E1,2.72E1,-5E-1,-3.3632473E1,-3.9435787E1,-2.6810083E1,-3.4602947E1,-2.5333971E1,4.2799315E0,-3.1158802E1,-2.7906202E1,-5.4351406E0,-2.437802E1,-5.17008E0,1.4101748E1,-2.232774E1,-2.5598417E1,-1.7905739E1,-2.1527622E1,1.7919874E0,-1.517662E1,-1.91033E1,-1.5771052E1,5.839565E0,-8.270433E0,-1.9050114E1,-1.2057029E1,1.5898272E1,-3.1069524E0,2.6820042E1,3.5900154E1,-1.5043731E1,-5.607799E0,-1.6137785E0,1.0124348E1,4.5820123E-1,8.606234E0,1.6594824E1,2.4943205E1,2.3108747E1,4.6598957E1,5.954354E0,2.0852085E1,-1.8975561E1,-1.3679071E1,-9.677049E0,-6.2615423E0,-6.6883416E0,6.126849E-1,1.8572218E0,1.211049E1,2.4745344E1,3.5095074E1,2.6060963E1,4.396266E1,4.4567913E1,5.5165646E1,6.09477E1,6.916649E1,-6.7352114E0,-7.564975E-1,3.557008E0,9.6771345E0,1.0704021E1,1.7639446E1,2.753417E1,1.9351675E1],"split_indices":[15,15,15,15,8,22,22,15,6,15,6,8,16,15,16,15,6,16,15,22,22,16,28,15,6,16,1,15,15,16,16,6,6,37,15,22,37,22,22,6,1,6,16,21,16,21,37,15,15,16,37,16,8,34,34,37,37,16,1,16,1,1,6,0,0,0,0,0,0,0,0,0,0,0,0,0,0,0,0,0,0,0,0,0,0,0,0,0,0,0,0,0,0,0,0,0,0,0,0,0,0,0,0,0,0,0,0,0,0,0,0,0,0,0,0,0,0,0,0,0,0,0,0,0,0,0,0],"split_type":[0,0,0,0,0,0,0,0,0,0,0,0,0,0,0,0,0,0,0,0,0,0,0,0,0,0,0,0,0,0,0,0,0,0,0,0,0,0,0,0,0,0,0,0,0,0,0,0,0,0,0,0,0,0,0,0,0,0,0,0,0,0,0,0,0,0,0,0,0,0,0,0,0,0,0,0,0,0,0,0,0,0,0,0,0,0,0,0,0,0,0,0,0,0,0,0,0,0,0,0,0,0,0,0,0,0,0,0,0,0,0,0,0,0,0,0,0,0,0,0,0,0,0,0,0,0,0],"sum_hessian":[1.20238E5,6.3433E4,5.6805E4,3.421E4,2.9223E4,3.8124E4,1.8681E4,1.2921E4,2.1289E4,2.268E4,6.543E3,2.6869E4,1.1255E4,1.4907E4,3.774E3,3.192E3,9.729E3,1.427E3,1.9862E4,1.3326E4,9.354E3,2.985E3,3.558E3,2.308E4,3.789E3,4.329E3,6.926E3,1.0683E4,4.224E3,2.31E3,1.464E3,1.374E3,1.818E3,4.26E2,9.303E3,8.25E2,6.02E2,9.574E3,1.0288E4,8.139E3,5.187E3,5.251E3,4.103E3,9.96E2,1.989E3,2.178E3,1.38E3,1.1538E4,1.1542E4,2.785E3,1.004E3,1.145E3,3.184E3,5.574E3,1.352E3,5.89E3,4.793E3,2.709E3,1.515E3,8.93E2,1.417E3,9.13E2,5.51E2,9.7E1,1.277E3,7.4E1,1.744E3,2.93E2,1.33E2,3.613E3,5.69E3,3.55E2,4.7E2,9.9E1,5.03E2,2.944E3,6.63E3,3.014E3,7.274E3,3.55E2,7.784E3,3.573E3,1.614E3,5.24E2,4.727E3,4.94E2,3.609E3,8.14E2,1.82E2,1.082E3,9.07E2,9.15E2,1.263E3,4.5E2,9.3E2,4.715E3,6.823E3,5.487E3,6.055E3,6.45E2,2.14E3,2.68E2,7.36E2,2.77E2,8.68E2,1.47E3,1.714E3,1.849E3,3.725E3,3.46E2,1.006E3,5.25E2,5.365E3,1.36E2,4.657E3,5.3E2,2.179E3,4.42E2,1.073E3,3.07E2,5.86E2,1.111E3,3.06E2,4.06E2,5.07E2,2.92E2,2.59E2],"tree_param":{"num_deleted":"0","num_feature":"39","num_nodes":"127","size_leaf_vector":"1"}},{"base_weights":[4.68498E-1,-3.2594852E2,3.6410037E2,-4.644415E2,-1.4797662E2,1.9834755E2,6.977261E2,-5.733766E2,-3.938907E2,-2.468502E2,1.9124591E2,-6.461997E1,3.0867084E2,1.434216E2,8.318862E2,-6.752044E2,-5.2999084E2,-7.726533E1,-4.1814417E2,-2.9282965E2,-1.7766402E2,4.7962564E2,-5.4027557E1,-1.7084929E2,1.9649427E1,2.4912582E2,6.653144E2,3.8733948E1,3.4122604E2,7.2639636E2,1.1049583E3,-7.295335E2,-6.300904E2,-2.6914932E2,-5.4295795E2,-3.159818E2,2.1742592E2,-4.5669934E2,-3.7787537E2,-3.3582452E2,-2.653663E2,-2.4217468E2,-1.263188E2,2.4250563E2,5.935922E2,-1.7044394E2,1.2324764E2,-2.552933E2,-1.2392357E2,-8.779755E1,1.01837776E2,1.11028625E2,4.1229828E2,7.900204E2,3.2461322E2,-7.187795E1,8.643614E1,2.9175092E2,4.8012943E2,6.4544104E2,8.2630023E2,9.724736E2,1.2373588E3,-3.7807106E1,-3.513589E1,-2.9621683E1,-3.251644E1,-2.193801E1,6.2454767E0,-2.8389967E1,-2.572652E1,-2.2376457E1,-3.811688E0,-4.899282E0,1.3881093E1,-2.0572868E1,-2.3805944E1,-1.6285437E1,-1.995115E1,-1.7748549E1,-1.4462587E1,1.134482E0,-1.39563265E1,-1.709004E1,-1.1203079E1,9.40979E0,-7.329886E0,1.6843523E1,-6.6615953E0,2.2582842E1,3.393426E1,-1.3958377E1,-4.7188296E0,-5.8554454E0,8.558272E0,-1.7142946E1,-1.1435356E1,-8.06259E0,-4.631533E0,-6.956611E0,-1.2112172E0,1.6874971E0,1.0720375E1,3.8341388E-1,8.65927E0,1.6816717E1,2.4321877E1,2.3696957E1,4.552032E1,5.2149525E0,2.0202848E1,-6.3885303E0,-1.4620678E0,2.2296207E0,6.827863E0,1.7793108E1,1.1485157E1,1.7592669E1,2.7105234E1,1.6845058E1,3.3077393E1,2.286989E1,4.1853615E1,4.076257E1,5.0838802E1,5.5400875E1,6.424594E1],"categories":[],"categories_nodes":[],"categories_segments":[],"categories_sizes":[],"default_left":[0,0,0,0,0,0,0,0,0,0,0,0,0,0,0,0,0,0,0,0,0,0,0,0,0,0,0,0,0,0,0,0,0,0,0,0,0,0,0,0,0,0,0,0,0,0,0,0,0,0,0,0,0,0,0,0,0,0,0,0,0,0,0,0,0,0,0,0,0,0,0,0,0,0,0,0,0,0,0,0,0,0,0,0,0,0,0,0,0,0,0,0,0,0,0,0,0,0,0,0,0,0,0,0,0,0,0,0,0,0,0,0,0,0,0,0,0,0,0,0,0,0,0,0,0,0,0],"id":3,"left_children":[1,3,5,7,9,11,13,15,17,19,21,23,25,27,29,31,33,35,37,39,41,43,45,47,49,51,53,55,57,59,61,63,65,67,69,71,73,75,77,79,81,83,85,87,89,91,93,95,97,99,101,103,105,107,109,111,113,115,117,119,121,123,125,-1,-1,-1,-1,-1,-1,-1,-1,-1,-1,-1,-1,-1,-1,-1,-1,-1,-1,-1,-1,-1,-1,-1,-1,-1,-1,-1,-1,-1,-1,-1,-1,-1,-1,-1,-1,-1,-1,-1,-1,-1,-1,-1,-1,-1,-1,-1,-1,-1,-1,-1,-1,-1,-1,-1,-1,-1,-1,-1,-1,-1,-1,-1,-1],"loss_changes":[1.4233149E10,1.5574292E9,3.1366098E9,2.7288474E8,9.276001E8,1.0994664E9,1.3999626E9,6.134272E7,1.656174E8,6.806886E7,4.415344E8,1.0027338E8,5.667809E8,7.598397E7,4.3584307E8,9.758592E6,3.2994304E7,1.0812271E8,3.0934528E7,1.5099264E7,2.8296352E7,7.738726E7,6.9652744E7,1.9603024E7,5.5175504E7,5.1550182E8,1.6200333E8,1.2674924E7,8.587712E6,8.792218E7,7.285555E7,8.13632E5,1.35616E6,3.1200688E7,6.298624E6,2.6741832E7,1.3089912E7,8.79296E6,1.0688E7,4.3648E6,3.1137344E7,6.760816E6,3.041244E7,3.3125696E7,2.3088E7,1.6820284E7,1.543027E7,4.039888E6,3.707824E6,8.834218E6,2.7125552E7,7.96181E7,5.8898304E7,1.059232E8,1.7898008E7,1.7216082E6,3.513103E6,3.65356E6,2.448648E6,2.9823232E7,1.9056896E7,1.3902848E7,1.1543552E7,0E0,0E0,0E0,0E0,0E0,0E0,0E0,0E0,0E0,0E0,0E0,0E0,0E0,0E0,0E0,0E0,0E0,0E0,0E0,0E0,0E0,0E0,0E0,0E0,0E0,0E0,0E0,0E0,0E0,0E0,0E0,0E0,0E0,0E0,0E0,0E0,0E0,0E0,0E0,0E0,0E0,0E0,0E0,0E0,0E0,0E0,0E0,0E0,0E0,0E0,0E0,0E0,0E0,0E0,0E0,0E0,0E0,0E0,0E0,0E0,0E0,0E0,0E0,0E0],"parents":[2147483647,0,0,1,1,2,2,3,3,4,4,5,5,6,6,7,7,8,8,9,9,10,10,11,11,12,12,13,13,14,14,15,15,16,16,17,17,18,18,19,19,20,20,21,21,22,22,23,23,24,24,25,25,26,26,27,27,28,28,29,29,30,30,31,31,32,32,33,33,34,34,35,35,36,36,37,37,38,38,39,39,40,40,41,41,42,42,43,43,44,44,45,45,46,46,47,47,48,48,49,49,50,50,51,51,52,52,53,53,54,54,55,55,56,56,57,57,58,58,59,59,60,60,61,61,62,62],"right_children":[2,4,6,8,10,12,14,16,18,20,22,24,26,28,30,32,34,36,38,40,42,44,46,48,50,52,54,56,58,60,62,64,66,68,70,72,74,76,78,80,82,84,86,88,90,92,94,96,98,100,102,104,106,108,110,112,114,116,118,120,122,124,126,-1,-1,-1,-1,-1,-1,-1,-1,-1,-1,-1,-1,-1,-1,-1,-1,-1,-1,-1,-1,-1,-1,-1,-1,-1,-1,-1,-1,-1,-1,-1,-1,-1,-1,-1,-1,-1,-1,-1,-1,-1,-1,-1,-1,-1,-1,-1,-1,-1,-1,-1,-1,-1,-1,-1,-1,-1,-1,-1,-1,-1,-1,-1,-1],"split_conditions":[1.424E3,1.126E3,2.2E3,9.36E2,1E0,-4.3388373E-1,-7.818315E-1,8E2,-2.5881904E-1,1.28E3,-2.5881904E-1,1.3371233E3,1E0,1.6236351E3,2.646E3,7.22E2,-2.5881904E-1,1.02120483E3,1.034E3,-4.3388373E-1,-4.3388373E-1,2.5411157E2,1E0,1.2020979E3,1.966E3,1.85E3,-1.8369701E-16,1.4161754E3,1.8424873E3,2.418E3,2.0344166E3,6.6E2,2E0,1.9030867E2,8.88E2,1E0,1.7829367E2,2E0,2E0,2.26E1,-2.5881904E-1,1.0874514E3,-5E-1,1.1E1,9.18E2,6E0,4.1766473E2,1.0874514E3,-7.818315E-1,1.658E3,2.7E1,1.588E3,2.02E3,1.5031608E3,5.392441E2,1.3510142E3,1.5258257E3,-7.0710677E-1,4.528593E2,1.5243334E3,1.63225E3,1.8350834E3,2.858E3,-3.7807106E1,-3.513589E1,-2.9621683E1,-3.251644E1,-2.193801E1,6.2454767E0,-2.8389967E1,-2.572652E1,-2.2376457E1,-3.811688E0,-4.899282E0,1.3881093E1,-2.0572868E1,-2.3805944E1,-1.6285437E1,-1.995115E1,-1.7748549E1,-1.4462587E1,1.134482E0,-1.39563265E1,-1.709004E1,-1.1203079E1,9.40979E0,-7.329886E0,1.6843523E1,-6.6615953E0,2.2582842E1,3.393426E1,-1.3958377E1,-4.7188296E0,-5.8554454E0,8.558272E0,-1.7142946E1,-1.1435356E1,-8.06259E0,-4.631533E0,-6.956611E0,-1.2112172E0,1.6874971E0,1.0720375E1,3.8341388E-1,8.65927E0,1.6816717E1,2.4321877E1,2.3696957E1,4.552032E1,5.2149525E0,2.0202848E1,-6.3885303E0,-1.4620678E0,2.2296207E0,6.827863E0,1.7793108E1,1.1485157E1,1.7592669E1,2.7105234E1,1.6845058E1,3.3077393E1,2.286989E1,4.1853615E1,4.076257E1,5.0838802E1,5.5400875E1,6.424594E1],"split_indices":[15,15,15,15,8,7,7,15,6,15,6,16,8,16,15,15,6,16,15,7,7,37,28,16,34,15,6,16,16,15,36,15,22,37,15,8,37,22,22,1,6,16,6,21,33,21,37,16,7,15,1,15,15,16,37,16,16,6,37,36,36,36,15,0,0,0,0,0,0,0,0,0,0,0,0,0,0,0,0,0,0,0,0,0,0,0,0,0,0,0,0,0,0,0,0,0,0,0,0,0,0,0,0,0,0,0,0,0,0,0,0,0,0,0,0,0,0,0,0,0,0,0,0,0,0,0,0],"split_type":[0,0,0,0,0,0,0,0,0,0,0,0,0,0,0,0,0,0,0,0,0,0,0,0,0,0,0,0,0,0,0,0,0,0,0,0,0,0,0,0,0,0,0,0,0,0,0,0,0,0,0,0,0,0,0,0,0,0,0,0,0,0,0,0,0,0,0,0,0,0,0,0,0,0,0,0,0,0,0,0,0,0,0,0,0,0,0,0,0,0,0,0,0,0,0,0,0,0,0,0,0,0,0,0,0,0,0,0,0,0,0,0,0,0,0,0,0,0,0,0,0,0,0,0,0,0,0],"sum_hessian":[1.19911E5,6.3189E4,5.6722E4,3.5535E4,2.7654E4,3.7896E4,1.8826E4,1.3965E4,2.157E4,2.1413E4,6.241E3,1.12E4,2.6696E4,3.669E3,1.5157E4,4.168E3,9.797E3,1.535E3,2.0035E4,1.2862E4,8.551E3,2.868E3,3.373E3,4.954E3,6.246E3,2.2878E4,3.818E3,2.4E3,1.269E3,1.0936E4,4.221E3,1.884E3,2.284E3,4.65E2,9.332E3,8.48E2,6.87E2,1.023E4,9.805E3,5.009E3,7.853E3,3.788E3,4.763E3,9.32E2,1.936E3,2.036E3,1.337E3,1.768E3,3.186E3,2.707E3,3.539E3,1.2392E4,1.0486E4,2.794E3,1.024E3,7.23E2,1.677E3,9.38E2,3.31E2,6.045E3,4.891E3,2.114E3,2.107E3,9.32E2,9.52E2,8.09E2,1.475E3,3.25E2,1.4E2,4.97E3,4.362E3,5.47E2,3.01E2,1.1E2,5.77E2,3.079E3,7.151E3,2.833E3,6.972E3,3.545E3,1.464E3,3.58E2,7.495E3,5.8E2,3.208E3,2.88E2,4.475E3,7.45E2,1.87E2,7.28E2,1.208E3,8.37E2,1.199E3,2.22E2,1.115E3,4.09E2,1.359E3,1.451E3,1.735E3,1.497E3,1.21E3,2.206E3,1.333E3,4.654E3,7.738E3,5.182E3,5.304E3,7.72E2,2.022E3,2.72E2,7.52E2,3.12E2,4.11E2,9.15E2,7.62E2,4.59E2,4.79E2,1.1E2,2.21E2,3.01E2,5.744E3,1.4E2,4.751E3,4.69E2,1.645E3,5.73E2,1.534E3],"tree_param":{"num_deleted":"0","num_feature":"39","num_nodes":"127","size_leaf_vector":"1"}},{"base_weights":[1.0774237E0,-2.9311005E2,3.666043E2,-4.3957138E2,-1.21109375E2,2.1039305E2,6.7798584E2,-5.367031E2,-3.6681924E2,2.1403998E2,-2.1851318E2,3.1585855E2,-4.736509E1,8.0861743E2,1.525229E2,-6.3372253E2,-4.948354E2,-6.769225E1,-3.9047723E2,4.771564E2,-2.5812387E1,-2.7038568E2,-1.4405809E2,6.744039E2,2.657112E2,-1.4855829E2,3.7242744E1,7.042545E2,1.0501105E3,3.038054E1,3.1774954E2,-6.9204834E2,-5.949041E2,-2.4126427E2,-5.0680096E2,-2.9701782E2,1.9565543E2,-4.2527374E2,-3.546657E2,3.39092E2,6.71858E2,1.1035508E2,-1.8583463E2,-2.4310786E2,-3.121548E2,-9.1891106E1,-2.1052946E2,8.075839E2,4.2499048E2,1.4094933E2,4.183947E2,-2.3233742E2,-1.0098872E2,-5.711005E1,1.1489361E2,6.3220624E2,7.9328455E2,9.277159E2,1.1792871E3,-7.1691185E1,7.350831E1,2.2531935E2,3.973967E2,-3.5941914E1,-3.3290035E1,-2.9892893E1,-1.2197431E1,-1.9803719E1,4.029174E0,-2.571021E1,-2.0623066E1,-3.8940046E0,-2.0633234E1,1.1951291E1,-8.002223E0,-1.903604E1,-2.2213139E1,-1.8378178E1,-1.371125E1,3.9412255E0,1.9880724E1,3.6213272E1,2.5172287E1,2.9580852E-1,1.041271E1,-1.2144085E1,-4.907727E0,1.0933789E0,-1.2824542E1,-2.0156853E1,-1.5129883E1,9.454191E0,-5.6822057E0,-1.6595274E1,-9.630469E0,2.114224E1,4.598825E1,1.0740146E1,2.5735437E1,3.352705E0,1.0612319E1,1.785449E1,2.4482038E1,-1.4078476E1,-9.635359E0,-6.844976E0,-3.359258E0,-5.506544E0,-7.0820206E-1,2.0503306E0,1.0532945E1,1.4949538E1,3.2250713E1,2.0876415E1,4.0150345E1,4.0950462E1,4.9147675E1,5.4053158E1,6.1846912E1,-6.9532886E0,-2.1245344E0,1.9279753E0,6.2203574E0,1.0582906E1,2.5279562E1,1.7647543E1,2.5040413E1],"categories":[],"categories_nodes":[],"categories_segments":[],"categories_sizes":[],"default_left":[0,0,0,0,0,0,0,0,0,0,0,0,0,0,0,0,0,0,0,0,0,0,0,0,0,0,0,0,0,0,0,0,0,0,0,0,0,0,0,0,0,0,0,0,0,0,0,0,0,0,0,0,0,0,0,0,0,0,0,0,0,0,0,0,0,0,0,0,0,0,0,0,0,0,0,0,0,0,0,0,0,0,0,0,0,0,0,0,0,0,0,0,0,0,0,0,0,0,0,0,0,0,0,0,0,0,0,0,0,0,0,0,0,0,0,0,0,0,0,0,0,0,0,0,0,0,0],"id":4,"left_children":[1,3,5,7,9,11,13,15,17,19,21,23,25,27,29,31,33,35,37,39,41,43,45,47,49,51,53,55,57,59,61,63,65,67,69,71,73,75,77,79,81,83,85,87,89,91,93,95,97,99,101,103,105,107,109,111,113,115,117,119,121,123,125,-1,-1,-1,-1,-1,-1,-1,-1,-1,-1,-1,-1,-1,-1,-1,-1,-1,-1,-1,-1,-1,-1,-1,-1,-1,-1,-1,-1,-1,-1,-1,-1,-1,-1,-1,-1,-1,-1,-1,-1,-1,-1,-1,-1,-1,-1,-1,-1,-1,-1,-1,-1,-1,-1,-1,-1,-1,-1,-1,-1,-1,-1,-1,-1],"loss_changes":[1.2927453E10,1.6779244E9,2.607469E9,2.5402163E8,1.00012096E9,9.70532E8,1.2291866E9,6.2257664E7,1.4555622E8,4.3540202E8,9.163738E7,4.5534618E8,8.8765064E7,3.60746E8,7.197659E7,1.0093696E7,3.2539904E7,9.119018E7,2.3604992E7,8.821178E7,7.868177E7,1.5862784E7,3.3786384E7,1.0289485E8,4.233641E8,1.8791312E7,4.137974E7,6.3758336E7,6.73024E7,9.038433E6,1.1070944E7,8.20864E5,2.749504E6,2.4296828E7,6.96704E6,2.0419336E7,1.0883328E7,8.006784E6,9.652864E6,2.9319776E7,1.1674176E7,1.9946724E7,8.279304E6,3.0030976E7,4.680384E6,3.3417728E7,9.2584E6,8.701082E7,2.0331152E7,6.444075E7,4.3480576E7,3.280128E6,3.64832E6,5.804874E6,2.191222E7,2.3459584E7,1.602048E7,1.2561408E7,1.056E7,1.1941875E6,2.562088E6,2.588508E6,3.55996E6,0E0,0E0,0E0,0E0,0E0,0E0,0E0,0E0,0E0,0E0,0E0,0E0,0E0,0E0,0E0,0E0,0E0,0E0,0E0,0E0,0E0,0E0,0E0,0E0,0E0,0E0,0E0,0E0,0E0,0E0,0E0,0E0,0E0,0E0,0E0,0E0,0E0,0E0,0E0,0E0,0E0,0E0,0E0,0E0,0E0,0E0,0E0,0E0,0E0,0E0,0E0,0E0,0E0,0E0,0E0,0E0,0E0,0E0,0E0,0E0,0E0,0E0,0E0,0E0],"parents":[2147483647,0,0,1,1,2,2,3,3,4,4,5,5,6,6,7,7,8,8,9,9,10,10,11,11,12,12,13,13,14,14,15,15,16,16,17,17,18,18,19,19,20,20,21,21,22,22,23,23,24,24,25,25,26,26,27,27,28,28,29,29,30,30,31,31,32,32,33,33,34,34,35,35,36,36,37,37,38,38,39,39,40,40,41,41,42,42,43,43,44,44,45,45,46,46,47,47,48,48,49,49,50,50,51,51,52,52,53,53,54,54,55,55,56,56,57,57,58,58,59,59,60,60,61,61,62,62],"right_children":[2,4,6,8,10,12,14,16,18,20,22,24,26,28,30,32,34,36,38,40,42,44,46,48,50,52,54,56,58,60,62,64,66,68,70,72,74,76,78,80,82,84,86,88,90,92,94,96,98,100,102,104,106,108,110,112,114,116,118,120,122,124,126,-1,-1,-1,-1,-1,-1,-1,-1,-1,-1,-1,-1,-1,-1,-1,-1,-1,-1,-1,-1,-1,-1,-1,-1,-1,-1,-1,-1,-1,-1,-1,-1,-1,-1,-1,-1,-1,-1,-1,-1,-1,-1,-1,-1,-1,-1,-1,-1,-1,-1,-1,-1,-1,-1,-1,-1,-1,-1,-1,-1,-1,-1,-1,-1],"split_conditions":[1.472E3,1.13E3,2.226E3,9.5E2,1E0,5E0,5E0,8.12E2,-2.5881904E-1,-2.5881904E-1,1.302E3,1E0,1.3547515E3,2.646E3,1.5941929E3,7.22E2,-2.5881904E-1,1.02120483E3,1.042E3,1.33125E3,-5E-1,5E0,5E0,-2.5881904E-1,1.89E3,1.2193502E3,2.02E3,2.434E3,2.0344166E3,1.4127546E3,1.7246005E3,6.6E2,4.58E2,9.302514E2,1.694E3,1E0,3E0,2E0,1.912E3,1.1322155E3,-5E-1,1.296E3,1.48E2,-2.5881904E-1,1.0117007E3,-5E-1,1.0874514E3,1.46575E3,2.402E3,1.686E3,2.064E3,1.1535587E3,6E0,1.73E3,1.5158557E3,1.5243334E3,1.63225E3,1.8711666E3,2.912E3,1.3266543E3,1.5193983E3,6E0,1.8777437E3,-3.5941914E1,-3.3290035E1,-2.9892893E1,-1.2197431E1,-1.9803719E1,4.029174E0,-2.571021E1,-2.0623066E1,-3.8940046E0,-2.0633234E1,1.1951291E1,-8.002223E0,-1.903604E1,-2.2213139E1,-1.8378178E1,-1.371125E1,3.9412255E0,1.9880724E1,3.6213272E1,2.5172287E1,2.9580852E-1,1.041271E1,-1.2144085E1,-4.907727E0,1.0933789E0,-1.2824542E1,-2.0156853E1,-1.5129883E1,9.454191E0,-5.6822057E0,-1.6595274E1,-9.630469E0,2.114224E1,4.598825E1,1.0740146E1,2.5735437E1,3.352705E0,1.0612319E1,1.785449E1,2.4482038E1,-1.4078476E1,-9.635359E0,-6.844976E0,-3.359258E0,-5.506544E0,-7.0820206E-1,2.0503306E0,1.0532945E1,1.4949538E1,3.2250713E1,2.0876415E1,4.0150345E1,4.0950462E1,4.9147675E1,5.4053158E1,6.1846912E1,-6.9532886E0,-2.1245344E0,1.9279753E0,6.2203574E0,1.0582906E1,2.5279562E1,1.7647543E1,2.5040413E1],"split_indices":[15,15,15,15,22,22,22,15,6,6,15,22,16,15,16,15,6,16,15,36,5,22,22,6,15,16,34,15,36,16,16,15,0,16,32,22,22,22,32,16,6,15,29,6,16,6,16,36,32,15,15,16,22,34,16,36,36,36,15,16,16,22,16,0,0,0,0,0,0,0,0,0,0,0,0,0,0,0,0,0,0,0,0,0,0,0,0,0,0,0,0,0,0,0,0,0,0,0,0,0,0,0,0,0,0,0,0,0,0,0,0,0,0,0,0,0,0,0,0,0,0,0,0,0,0,0,0],"split_type":[0,0,0,0,0,0,0,0,0,0,0,0,0,0,0,0,0,0,0,0,0,0,0,0,0,0,0,0,0,0,0,0,0,0,0,0,0,0,0,0,0,0,0,0,0,0,0,0,0,0,0,0,0,0,0,0,0,0,0,0,0,0,0,0,0,0,0,0,0,0,0,0,0,0,0,0,0,0,0,0,0,0,0,0,0,0,0,0,0,0,0,0,0,0,0,0,0,0,0,0,0,0,0,0,0,0,0,0,0,0,0,0,0,0,0,0,0,0,0,0,0,0,0,0,0,0,0],"sum_hessian":[1.20216E5,6.6608E4,5.3608E4,3.5974E4,3.0634E4,3.57E4,1.7908E4,1.5403E4,2.0571E4,6.898E3,2.3736E4,2.5334E4,1.0366E4,1.4342E4,3.566E3,4.639E3,1.0764E4,1.508E3,1.9063E4,3.289E3,3.609E3,1.3988E4,9.748E3,3.107E3,2.2227E4,4.72E3,5.646E3,1.0017E4,4.325E3,2.051E3,1.515E3,1.847E3,2.792E3,4.86E2,1.0278E4,8.06E2,7.02E2,9.663E3,9.4E3,1.926E3,1.363E3,1.95E3,1.659E3,8.466E3,5.522E3,5.463E3,4.285E3,2.024E3,1.083E3,1.2233E4,9.994E3,1.708E3,3.012E3,2.549E3,3.097E3,5.541E3,4.476E3,2.225E3,2.1E3,6.09E2,1.442E3,7.03E2,8.12E2,9.01E2,9.46E2,2.768E3,2.4E1,3.28E2,1.58E2,9.526E3,7.52E2,2.79E2,5.27E2,6.26E2,7.6E1,2.894E3,6.769E3,8.098E3,1.302E3,3.54E2,1.572E3,1.037E3,3.26E2,9.44E2,1.006E3,1.004E3,6.55E2,4.07E2,8.059E3,5.21E2,5.001E3,3.92E2,5.071E3,5.49E2,3.736E3,4.58E2,1.566E3,3.25E2,7.58E2,6.008E3,6.225E3,5.375E3,4.619E3,7.59E2,9.49E2,1.459E3,1.553E3,1.14E3,1.409E3,1.749E3,1.348E3,2.06E2,5.335E3,1.14E2,4.362E3,7.55E2,1.47E3,7.84E2,1.316E3,1.83E2,4.26E2,8.56E2,5.86E2,6.72E2,3.1E1,5.71E2,2.41E2],"tree_param":{"num_deleted":"0","num_feature":"39","num_nodes":"127","size_leaf_vector":"1"}},{"base_weights":[-1.3261029E0,-2.769596E2,3.490864E2,-4.0472104E2,-9.4978226E1,1.9560547E2,6.291145E2,-4.9150037E2,-3.2158224E2,-1.9245276E2,2.3702948E2,-4.4333157E1,2.9423706E2,1.25745926E2,7.513891E2,-5.8900653E2,-4.5159763E2,-3.4938553E1,-3.479238E2,-2.3503386E2,-1.2100288E2,4.6732184E2,6.5886164E0,-1.40893E2,3.8017E1,2.445276E2,6.447677E2,3.3936546E1,3.0687595E2,6.5127795E2,9.83046E2,-6.560493E2,-5.552648E2,-2.1630743E2,-4.630973E2,-2.8783652E2,2.2099364E2,-3.6243127E2,-2.7443033E2,-2.783168E2,-2.0561536E2,-1.8850417E2,-6.692302E1,2.2652512E2,5.730279E2,1.223379E2,-1.5817429E2,-2.2004391E2,-9.617558E1,-8.692208E0,1.7898958E2,1.3486278E2,3.875074E2,8.175525E2,4.5829245E2,-3.1528128E1,1.0128546E2,2.6240164E2,4.3428012E2,5.6168994E2,7.1797076E2,8.516494E2,1.0966487E3,-2.737126E1,-3.3205467E1,-1.9636038E1,-2.812128E1,-2.087406E1,5.44792E-1,-2.3597525E1,-1.887631E1,-4.95796E0,-1.9997135E1,-2.318006E0,1.3985045E1,-1.9482534E1,-1.6630314E1,-3.9354107E0,-1.5291457E1,-1.4985148E1,-1.191532E1,2.1567285E0,-1.103809E1,-1.5508326E1,-8.504291E0,1.0090009E1,-4.5321326E0,-5.9411116E0,1.6304068E1,2.2584585E1,3.3249264E1,1.6194448E1,3.9652085E0,-1.0780663E1,-3.9656518E0,-1.4202593E1,-9.854676E0,-6.520341E0,-3.209203E0,1.1062799E0,-4.991896E0,3.934729E0,1.1771906E1,3.364146E0,1.0160648E1,-6.7369354E-1,1.9836779E1,2.1345747E1,4.663989E1,1.33778305E1,2.8228098E1,-5.7757764E0,-1.6221965E-2,3.7239094E0,8.030447E0,1.6284533E1,1.0230984E1,1.728659E1,2.5739054E1,2.810684E0,2.8425863E1,2.47991E1,3.668737E1,1.5989504E1,4.3233078E1,4.8073494E1,5.6855724E1],"categories":[],"categories_nodes":[],"categories_segments":[],"categories_sizes":[],"default_left":[0,0,0,0,0,0,0,0,0,0,0,0,0,0,0,0,0,0,0,0,0,0,0,0,0,0,0,0,0,0,0,0,0,0,0,0,0,0,0,0,0,0,0,0,0,0,0,0,0,0,0,0,0,0,0,0,0,0,0,0,0,0,0,0,0,0,0,0,0,0,0,0,0,0,0,0,0,0,0,0,0,0,0,0,0,0,0,0,0,0,0,0,0,0,0,0,0,0,0,0,0,0,0,0,0,0,0,0,0,0,0,0,0,0,0,0,0,0,0,0,0,0,0,0,0,0,0],"id":5,"left_children":[1,3,5,7,9,11,13,15,17,19,21,23,25,27,29,31,33,35,37,39,41,43,45,47,49,51,53,55,57,59,61,63,65,67,69,71,73,75,77,79,81,83,85,87,89,91,93,95,97,99,101,103,105,107,109,111,113,115,117,119,121,123,125,-1,-1,-1,-1,-1,-1,-1,-1,-1,-1,-1,-1,-1,-1,-1,-1,-1,-1,-1,-1,-1,-1,-1,-1,-1,-1,-1,-1,-1,-1,-1,-1,-1,-1,-1,-1,-1,-1,-1,-1,-1,-1,-1,-1,-1,-1,-1,-1,-1,-1,-1,-1,-1,-1,-1,-1,-1,-1,-1,-1,-1,-1,-1,-1],"loss_changes":[1.1600296E10,1.5629563E9,2.2725622E9,2.8479437E8,8.974521E8,8.084037E8,1.152168E9,7.491584E7,1.5231398E8,6.519181E7,3.3401174E8,7.914086E7,4.2165914E8,6.0853316E7,3.4866944E8,1.2321664E7,3.701197E7,1.1003092E8,1.9599872E7,1.7044736E7,2.9216616E7,7.999834E7,6.003638E7,1.6192952E7,3.5374656E7,3.3240768E8,9.647885E7,1.0717002E7,6.861152E6,6.2452736E7,6.687949E7,1.275456E6,4.128896E6,2.9302952E7,9.727744E6,1.8045208E7,1.3275756E7,1.2394368E7,1.8719536E7,4.576576E6,3.0150944E7,7.926808E6,2.8363544E7,3.311372E7,2.4101632E7,1.6011602E7,5.866988E6,2.37228E6,3.199206E6,1.1338972E7,7.550908E6,5.542008E7,3.4059264E7,6.978656E7,2.9199008E7,3.231306E6,1.893219E6,3.279484E6,2.081676E6,1.5476992E7,2.0743936E7,1.43328E7,1.2215296E7,0E0,0E0,0E0,0E0,0E0,0E0,0E0,0E0,0E0,0E0,0E0,0E0,0E0,0E0,0E0,0E0,0E0,0E0,0E0,0E0,0E0,0E0,0E0,0E0,0E0,0E0,0E0,0E0,0E0,0E0,0E0,0E0,0E0,0E0,0E0,0E0,0E0,0E0,0E0,0E0,0E0,0E0,0E0,0E0,0E0,0E0,0E0,0E0,0E0,0E0,0E0,0E0,0E0,0E0,0E0,0E0,0E0,0E0,0E0,0E0,0E0,0E0,0E0,0E0],"parents":[2147483647,0,0,1,1,2,2,3,3,4,4,5,5,6,6,7,7,8,8,9,9,10,10,11,11,12,12,13,13,14,14,15,15,16,16,17,17,18,18,19,19,20,20,21,21,22,22,23,23,24,24,25,25,26,26,27,27,28,28,29,29,30,30,31,31,32,32,33,33,34,34,35,35,36,36,37,37,38,38,39,39,40,40,41,41,42,42,43,43,44,44,45,45,46,46,47,47,48,48,49,49,50,50,51,51,52,52,53,53,54,54,55,55,56,56,57,57,58,58,59,59,60,60,61,61,62,62],"right_children":[2,4,6,8,10,12,14,16,18,20,22,24,26,28,30,32,34,36,38,40,42,44,46,48,50,52,54,56,58,60,62,64,66,68,70,72,74,76,78,80,82,84,86,88,90,92,94,96,98,100,102,104,106,108,110,112,114,116,118,120,122,124,126,-1,-1,-1,-1,-1,-1,-1,-1,-1,-1,-1,-1,-1,-1,-1,-1,-1,-1,-1,-1,-1,-1,-1,-1,-1,-1,-1,-1,-1,-1,-1,-1,-1,-1,-1,-1,-1,-1,-1,-1,-1,-1,-1,-1,-1,-1,-1,-1,-1,-1,-1,-1,-1,-1,-1,-1,-1,-1,-1,-1,-1,-1,-1,-1],"split_conditions":[1.48E3,1.158E3,2.2E3,9.84E2,1E0,-4.3388373E-1,-7.818315E-1,8.3E2,-2.5881904E-1,1.336E3,-2.5881904E-1,1.3547515E3,1E0,1.6236351E3,2.624E3,7.22E2,-2.5881904E-1,1.0304213E3,1.85E3,-4.3388373E-1,-4.3388373E-1,2.5411157E2,-5E-1,1.2193502E3,2.79E1,1.89E3,-5E-1,1.4762926E3,1.8424873E3,2.36E3,2.00025E3,6.123234E-17,-2.5881904E-1,1.4545518E2,1.694E3,2E0,1.7829367E2,1.07E3,-5E-1,2.2E1,-2.5881904E-1,1.101279E3,-5E-1,5E-1,1.33125E3,-1.8369701E-16,1.48E2,1.1136779E3,-7.818315E-1,5E-1,1.798E3,1.694E3,1.3455834E3,1.46575E3,5.6461176E2,1.3510142E3,2.5E1,-7.0710677E-1,5.274615E2,1.45925E3,1.6459166E3,1.7025E3,2.808E3,-2.737126E1,-3.3205467E1,-1.9636038E1,-2.812128E1,-2.087406E1,5.44792E-1,-2.3597525E1,-1.887631E1,-4.95796E0,-1.9997135E1,-2.318006E0,1.3985045E1,-1.9482534E1,-1.6630314E1,-3.9354107E0,-1.5291457E1,-1.4985148E1,-1.191532E1,2.1567285E0,-1.103809E1,-1.5508326E1,-8.504291E0,1.0090009E1,-4.5321326E0,-5.9411116E0,1.6304068E1,2.2584585E1,3.3249264E1,1.6194448E1,3.9652085E0,-1.0780663E1,-3.9656518E0,-1.4202593E1,-9.854676E0,-6.520341E0,-3.209203E0,1.1062799E0,-4.991896E0,3.934729E0,1.1771906E1,3.364146E0,1.0160648E1,-6.7369354E-1,1.9836779E1,2.1345747E1,4.663989E1,1.33778305E1,2.8228098E1,-5.7757764E0,-1.6221965E-2,3.7239094E0,8.030447E0,1.6284533E1,1.0230984E1,1.728659E1,2.5739054E1,2.810684E0,2.8425863E1,2.47991E1,3.668737E1,1.5989504E1,4.3233078E1,4.8073494E1,5.6855724E1],"split_indices":[15,15,15,15,8,7,7,15,6,15,6,16,8,16,15,15,6,16,32,7,7,37,5,16,1,15,6,16,16,15,36,6,6,37,32,22,37,15,5,1,6,16,6,5,36,6,29,16,7,6,15,15,36,36,37,16,1,6,37,36,36,36,15,0,0,0,0,0,0,0,0,0,0,0,0,0,0,0,0,0,0,0,0,0,0,0,0,0,0,0,0,0,0,0,0,0,0,0,0,0,0,0,0,0,0,0,0,0,0,0,0,0,0,0,0,0,0,0,0,0,0,0,0,0,0,0,0],"split_type":[0,0,0,0,0,0,0,0,0,0,0,0,0,0,0,0,0,0,0,0,0,0,0,0,0,0,0,0,0,0,0,0,0,0,0,0,0,0,0,0,0,0,0,0,0,0,0,0,0,0,0,0,0,0,0,0,0,0,0,0,0,0,0,0,0,0,0,0,0,0,0,0,0,0,0,0,0,0,0,0,0,0,0,0,0,0,0,0,0,0,0,0,0,0,0,0,0,0,0,0,0,0,0,0,0,0,0,0,0,0,0,0,0,0,0,0,0,0,0,0,0,0,0,0,0,0,0],"sum_hessian":[1.20102E5,6.7224E4,5.2878E4,3.9495E4,2.7729E4,3.4158E4,1.872E4,1.9322E4,2.0173E4,2.1436E4,6.293E3,9.951E3,2.4207E4,3.659E3,1.5061E4,5.607E3,1.3715E4,1.698E3,1.8475E4,1.343E4,8.006E3,3.147E3,3.146E3,4.58E3,5.371E3,2.1202E4,3.005E3,2.429E3,1.23E3,1.0519E4,4.542E3,1.871E3,3.736E3,6.4E2,1.3075E4,8.54E2,8.44E2,1.5426E4,3.049E3,5.431E3,7.999E3,3.56E3,4.446E3,9.61E2,2.186E3,1.848E3,1.298E3,1.652E3,2.928E3,4.035E3,1.336E3,1.2E4,9.202E3,1.558E3,1.447E3,1.232E3,1.197E3,9.14E2,3.16E2,4.493E3,6.026E3,2.11E3,2.432E3,1.34E2,1.737E3,1.6E2,3.576E3,3.39E2,3.01E2,1.1845E4,1.23E3,3.19E2,5.35E2,1.52E2,6.92E2,8.059E3,7.367E3,4.22E2,2.627E3,3.535E3,1.896E3,4.59E2,7.54E3,4.66E2,3.094E3,3.6E2,4.086E3,2.15E2,7.46E2,9.45E2,1.241E3,3.24E2,1.524E3,7.5E2,5.48E2,4.33E2,1.219E3,1.413E3,1.515E3,3.016E3,1.019E3,4.82E2,8.54E2,6.035E3,5.965E3,2.07E2,8.995E3,3.56E2,1.202E3,5.19E2,9.28E2,3.33E2,8.99E2,8.26E2,3.71E2,4.34E2,4.8E2,1.53E2,1.63E2,6E1,4.433E3,4.02E2,5.624E3,5.1E1,2.059E3,5.66E2,1.866E3],"tree_param":{"num_deleted":"0","num_feature":"39","num_nodes":"127","size_leaf_vector":"1"}},{"base_weights":[-1.996988E-1,-2.5844055E2,3.375644E2,-3.8279626E2,-8.3823746E1,2.0190309E2,6.2115656E2,-4.779957E2,-3.135102E2,-1.7738603E2,2.3643552E2,-3.506419E1,2.963994E2,1.34783E2,7.3880206E2,-5.7276385E2,-4.4156113E2,-3.7869835E1,-3.373017E2,-2.2184982E2,-1.10532906E2,4.5435355E2,1.4942596E1,-8.199325E1,1.1884604E2,2.5561385E2,6.242481E2,4.4010983E1,2.795238E2,6.615722E2,9.999256E2,-6.3989E2,-5.437248E2,-2.1980371E2,-4.5257025E2,1.3029977E2,-3.5125345E2,-3.7732263E2,-3.0651675E2,-2.6300797E2,-1.9374593E2,-1.7718336E2,-5.8633595E1,2.1083354E2,5.5126904E2,1.2345714E2,-1.4559604E2,-1.7087404E2,-3.7189217E1,2.5659916E0,1.8254892E2,1.4244147E2,3.9449973E2,7.2272675E2,3.2332452E2,-1.8763498E1,8.319697E1,2.2203737E2,3.802051E2,5.870322E2,7.4586646E2,8.415166E2,1.0499391E3,-3.2119335E1,-2.0646307E1,-2.5291143E1,-2.8197248E1,-2.0511177E1,2.831632E0,-2.4222313E1,-2.149978E1,-4.128608E0,1.3171054E1,-1.8973064E1,1.0315614E0,-1.6656176E1,-1.9778728E1,-1.6063889E1,-1.1413556E1,-1.7518066E1,-1.2669027E1,3.7268116E0,-1.0243291E1,-1.4404868E1,-7.99933E0,1.0361381E1,-4.1354747E0,-6.007418E0,1.5294925E1,2.2525497E1,3.243159E1,1.2071623E1,2.3409853E0,-1.017537E1,-3.3382409E0,-1.1952857E1,-7.108504E0,-4.813291E0,-5.1015265E-2,-6.1313186E0,1.1219877E0,3.828465E0,1.0617068E1,4.208173E0,1.0590057E1,1.7228912E1,2.3579855E1,1.9240982E1,4.0283447E1,8.468799E0,2.1753628E1,-4.5713177E0,8.0890015E-2,3.2771294E0,8.507079E0,1.3577128E1,7.1723146E0,2.099378E1,1.2620375E1,1.8242636E1,3.0090128E1,1.7825315E1,3.77568E1,1.7041115E1,4.27765E1,4.7657818E1,5.5348267E1],"categories":[],"categories_nodes":[],"categories_segments":[],"categories_sizes":[],"default_left":[0,0,0,0,0,0,0,0,0,0,0,0,0,0,0,0,0,0,0,0,0,0,0,0,0,0,0,0,0,0,0,0,0,0,0,0,0,0,0,0,0,0,0,0,0,0,0,0,0,0,0,0,0,0,0,0,0,0,0,0,0,0,0,0,0,0,0,0,0,0,0,0,0,0,0,0,0,0,0,0,0,0,0,0,0,0,0,0,0,0,0,0,0,0,0,0,0,0,0,0,0,0,0,0,0,0,0,0,0,0,0,0,0,0,0,0,0,0,0,0,0,0,0,0,0,0,0],"id":6,"left_children":[1,3,5,7,9,11,13,15,17,19,21,23,25,27,29,31,33,35,37,39,41,43,45,47,49,51,53,55,57,59,61,63,65,67,69,71,73,75,77,79,81,83,85,87,89,91,93,95,97,99,101,103,105,107,109,111,113,115,117,119,121,123,125,-1,-1,-1,-1,-1,-1,-1,-1,-1,-1,-1,-1,-1,-1,-1,-1,-1,-1,-1,-1,-1,-1,-1,-1,-1,-1,-1,-1,-1,-1,-1,-1,-1,-1,-1,-1,-1,-1,-1,-1,-1,-1,-1,-1,-1,-1,-1,-1,-1,-1,-1,-1,-1,-1,-1,-1,-1,-1,-1,-1,-1,-1,-1,-1],"loss_changes":[1.0473305E10,1.4775813E9,2.0014444E9,2.61995E8,8.481783E8,7.880709E8,9.63136E8,5.7543936E7,1.5085158E8,6.5091904E7,3.0890397E8,7.248394E7,3.3626726E8,4.3081704E7,2.726958E8,8.706304E6,2.9428736E7,9.643699E7,2.5975296E7,1.5165568E7,3.0263768E7,7.602016E7,5.532894E7,3.0616904E7,1.7369822E7,3.5168218E8,8.223936E7,4.963138E6,7.231368E6,6.531072E7,2.3613184E7,5.264E5,2.204736E6,3.0237992E7,8.082688E6,3.377206E7,6.71096E6,7.292544E6,1.3757568E7,4.397888E6,2.3347392E7,7.261016E6,3.1522106E7,2.8984356E7,2.2339904E7,1.7122006E7,5.834464E6,5.00952E6,1.0927174E7,2.0703156E6,4.767188E6,4.982987E7,3.8506624E7,5.843392E7,1.1762272E7,1.1493755E6,1.895259E6,3.100816E6,2.215988E6,1.801984E7,1.744128E7,4.949728E6,1.1892992E7,0E0,0E0,0E0,0E0,0E0,0E0,0E0,0E0,0E0,0E0,0E0,0E0,0E0,0E0,0E0,0E0,0E0,0E0,0E0,0E0,0E0,0E0,0E0,0E0,0E0,0E0,0E0,0E0,0E0,0E0,0E0,0E0,0E0,0E0,0E0,0E0,0E0,0E0,0E0,0E0,0E0,0E0,0E0,0E0,0E0,0E0,0E0,0E0,0E0,0E0,0E0,0E0,0E0,0E0,0E0,0E0,0E0,0E0,0E0,0E0,0E0,0E0,0E0,0E0],"parents":[2147483647,0,0,1,1,2,2,3,3,4,4,5,5,6,6,7,7,8,8,9,9,10,10,11,11,12,12,13,13,14,14,15,15,16,16,17,17,18,18,19,19,20,20,21,21,22,22,23,23,24,24,25,25,26,26,27,27,28,28,29,29,30,30,31,31,32,32,33,33,34,34,35,35,36,36,37,37,38,38,39,39,40,40,41,41,42,42,43,43,44,44,45,45,46,46,47,47,48,48,49,49,50,50,51,51,52,52,53,53,54,54,55,55,56,56,57,57,58,58,59,59,60,60,61,61,62,62],"right_children":[2,4,6,8,10,12,14,16,18,20,22,24,26,28,30,32,34,36,38,40,42,44,46,48,50,52,54,56,58,60,62,64,66,68,70,72,74,76,78,80,82,84,86,88,90,92,94,96,98,100,102,104,106,108,110,112,114,116,118,120,122,124,126,-1,-1,-1,-1,-1,-1,-1,-1,-1,-1,-1,-1,-1,-1,-1,-1,-1,-1,-1,-1,-1,-1,-1,-1,-1,-1,-1,-1,-1,-1,-1,-1,-1,-1,-1,-1,-1,-1,-1,-1,-1,-1,-1,-1,-1,-1,-1,-1,-1,-1,-1,-1,-1,-1,-1,-1,-1,-1,-1,-1,-1,-1,-1,-1],"split_conditions":[1.494E3,1.162E3,2.252E3,9.62E2,1E0,-4.3388373E-1,-7.818315E-1,8.12E2,-2.5881904E-1,1.336E3,-2.5881904E-1,2.64E1,1E0,2.61E1,2.728E3,6.94E2,-2.5881904E-1,3E0,1.05E3,-4.3388373E-1,-4.3388373E-1,2.5132686E2,-5E-1,1.1366666E3,1.73E3,1.912E3,-1.8369701E-16,1.2305E3,2.808E3,2.464E3,6.587768E2,1.632E3,2E0,1.5327702E2,8.92E2,2.0378249E2,1.0363334E3,2E0,1E0,9.401667E2,-5E-1,9.876667E2,-5E-1,5E-1,1.478E3,6.123234E-17,4.83E1,1.83E3,1.922E3,2.142E2,1.3046666E3,1.73E3,2.11E3,3.2646555E2,2.604E3,1.0816666E3,2.672E3,2.012E3,2.014E3,4.9630414E2,5.243165E2,1.4063334E3,2.91E1,-3.2119335E1,-2.0646307E1,-2.5291143E1,-2.8197248E1,-2.0511177E1,2.831632E0,-2.4222313E1,-2.149978E1,-4.128608E0,1.3171054E1,-1.8973064E1,1.0315614E0,-1.6656176E1,-1.9778728E1,-1.6063889E1,-1.1413556E1,-1.7518066E1,-1.2669027E1,3.7268116E0,-1.0243291E1,-1.4404868E1,-7.99933E0,1.0361381E1,-4.1354747E0,-6.007418E0,1.5294925E1,2.2525497E1,3.243159E1,1.2071623E1,2.3409853E0,-1.017537E1,-3.3382409E0,-1.1952857E1,-7.108504E0,-4.813291E0,-5.1015265E-2,-6.1313186E0,1.1219877E0,3.828465E0,1.0617068E1,4.208173E0,1.0590057E1,1.7228912E1,2.3579855E1,1.9240982E1,4.0283447E1,8.468799E0,2.1753628E1,-4.5713177E0,8.0890015E-2,3.2771294E0,8.507079E0,1.3577128E1,7.1723146E0,2.099378E1,1.2620375E1,1.8242636E1,3.0090128E1,1.7825315E1,3.77568E1,1.7041115E1,4.27765E1,4.7657818E1,5.5348267E1],"split_indices":[15,15,15,15,8,7,7,15,6,15,6,1,8,1,15,15,6,22,15,7,7,37,5,35,15,15,6,35,15,15,37,32,22,37,15,37,35,22,8,35,6,35,6,5,34,6,13,34,34,29,35,15,15,37,32,35,15,18,18,37,37,35,1,0,0,0,0,0,0,0,0,0,0,0,0,0,0,0,0,0,0,0,0,0,0,0,0,0,0,0,0,0,0,0,0,0,0,0,0,0,0,0,0,0,0,0,0,0,0,0,0,0,0,0,0,0,0,0,0,0,0,0,0,0,0,0,0],"split_type":[0,0,0,0,0,0,0,0,0,0,0,0,0,0,0,0,0,0,0,0,0,0,0,0,0,0,0,0,0,0,0,0,0,0,0,0,0,0,0,0,0,0,0,0,0,0,0,0,0,0,0,0,0,0,0,0,0,0,0,0,0,0,0,0,0,0,0,0,0,0,0,0,0,0,0,0,0,0,0,0,0,0,0,0,0,0,0,0,0,0,0,0,0,0,0,0,0,0,0,0,0,0,0,0,0,0,0,0,0,0,0,0,0,0,0,0,0,0,0,0,0,0,0,0,0,0,0],"sum_hessian":[1.20071E5,6.8046E4,5.2025E4,3.9742E4,2.8304E4,3.5192E4,1.6833E4,1.6738E4,2.3004E4,2.1905E4,6.399E3,1.0033E4,2.5159E4,3.279E3,1.3554E4,4.644E3,1.2094E4,1.828E3,2.1176E4,1.3154E4,8.751E3,3.225E3,3.174E3,7.689E3,2.344E3,2.2377E4,2.782E3,2.016E3,1.263E3,1.0463E4,3.091E3,1.396E3,3.248E3,5.73E2,1.1521E4,1.19E3,6.38E2,9.202E3,1.1974E4,5.334E3,7.82E3,3.83E3,4.921E3,9.19E2,2.306E3,1.894E3,1.28E3,2.576E3,5.113E3,8.3E2,1.514E3,1.2331E4,1.0046E4,2.095E3,6.87E2,7.75E2,1.241E3,8.06E2,4.57E2,5.557E3,4.906E3,7.46E2,2.345E3,1.379E3,1.7E1,1.139E3,2.109E3,3.39E2,2.34E2,4.768E3,6.753E3,4.58E2,7.32E2,5.93E2,4.5E1,2.695E3,6.507E3,1.0071E4,1.903E3,5.26E2,4.808E3,3.11E2,7.509E3,5.12E2,3.318E3,4.08E2,4.513E3,2.05E2,7.14E2,1.136E3,1.17E3,7.45E2,1.149E3,7.37E2,5.43E2,7.61E2,1.815E3,1.941E3,3.172E3,1.13E2,7.17E2,3.33E2,1.181E3,6.702E3,5.629E3,6.101E3,3.945E3,4.14E2,1.681E3,2.9E2,3.97E2,1.69E2,6.06E2,1.033E3,2.08E2,4.93E2,3.13E2,3.47E2,1.1E2,3.48E2,5.209E3,1.15E2,4.791E3,2.1E1,7.25E2,8.76E2,1.469E3],"tree_param":{"num_deleted":"0","num_feature":"39","num_nodes":"127","size_leaf_vector":"1"}},{"base_weights":[-4.2294347E-1,-2.3489621E2,3.3591812E2,-3.5764777E2,-6.0473667E1,1.9768791E1,4.433944E2,-4.4451715E2,-2.830567E2,-1.5071681E2,2.553241E2,-7.526101E1,1.3990695E2,3.061766E2,7.262073E2,-5.2805707E2,-4.0587296E2,-2.6121338E1,-3.0820084E2,-1.996666E2,-8.7609795E1,4.4959976E2,4.2803673E1,-1.6924358E2,-3.1352463E1,8.21253E1,2.7638065E2,2.735393E2,6.242184E2,6.499043E2,9.509674E2,-5.848253E2,-4.914223E2,-1.993058E2,-4.160903E2,-2.2545763E2,2.6504034E2,-3.3873645E2,-2.736657E2,-2.4169688E2,-1.7051149E2,-1.5381258E2,-3.6113583E1,2.8051755E2,5.838225E2,-9.399434E1,1.6262079E2,-2.2611578E2,-1.3878987E2,-2.5129273E0,-7.763949E1,-1.2877821E1,1.2649127E2,2.1037459E2,3.7740793E2,1.6463737E2,4.1130783E2,7.1006036E2,3.4300726E2,5.007168E2,6.7922144E2,8.308892E2,1.036231E3,-3.042341E1,-2.7395132E1,-2.4726665E1,-2.5524063E0,-1.781965E1,1.0510947E0,-2.1063177E1,-1.4478073E1,-1.6890013E1,-4.81252E-1,-9.980003E0,1.3943652E1,-1.7528212E1,-1.3864578E1,-1.4418894E1,-9.765264E0,-1.6074995E1,-1.1546638E1,2.5532365E0,-9.270572E0,-1.3508414E1,-6.8187747E0,9.874193E0,-2.978833E0,8.810421E-1,1.652301E1,3.304646E1,2.4311821E1,-7.029278E0,2.314819E0,-1.4396214E0,1.100638E1,-1.0987142E1,-2.6696869E1,-7.988949E0,-4.98748E0,-1.8493942E0,2.5135796E0,-5.671931E0,-2.5422508E-1,1.2453241E1,-1.3221248E0,3.936114E0,9.205747E0,6.2419295E0,1.1935973E1,1.7247938E1,2.2807646E1,5.6695023E0,1.19984045E1,1.3403699E1,2.2008253E1,2.1172445E1,4.015989E1,9.274104E0,2.1633936E1,4.967422E0,2.6105093E1,3.1452112E1,3.7244045E1,2.2437471E1,4.2244778E1,4.9530087E1,5.5223335E1],"categories":[],"categories_nodes":[],"categories_segments":[],"categories_sizes":[],"default_left":[0,0,0,0,0,0,0,0,0,0,0,0,0,0,0,0,0,0,0,0,0,0,0,0,0,0,0,0,0,0,0,0,0,0,0,0,0,0,0,0,0,0,0,0,0,0,0,0,0,0,0,0,0,0,0,0,0,0,0,0,0,0,0,0,0,0,0,0,0,0,0,0,0,0,0,0,0,0,0,0,0,0,0,0,0,0,0,0,0,0,0,0,0,0,0,0,0,0,0,0,0,0,0,0,0,0,0,0,0,0,0,0,0,0,0,0,0,0,0,0,0,0,0,0,0,0,0],"id":7,"left_children":[1,3,5,7,9,11,13,15,17,19,21,23,25,27,29,31,33,35,37,39,41,43,45,47,49,51,53,55,57,59,61,63,65,67,69,71,73,75,77,79,81,83,85,87,89,91,93,95,97,99,101,103,105,107,109,111,113,115,117,119,121,123,125,-1,-1,-1,-1,-1,-1,-1,-1,-1,-1,-1,-1,-1,-1,-1,-1,-1,-1,-1,-1,-1,-1,-1,-1,-1,-1,-1,-1,-1,-1,-1,-1,-1,-1,-1,-1,-1,-1,-1,-1,-1,-1,-1,-1,-1,-1,-1,-1,-1,-1,-1,-1,-1,-1,-1,-1,-1,-1,-1,-1,-1,-1,-1,-1],"loss_changes":[9.465215E9,1.5141384E9,1.6751688E9,2.6883328E8,8.3256755E8,1.428221E8,1.4276024E9,6.168576E7,1.4428518E8,7.016941E7,2.680607E8,2.8819252E7,4.354567E7,2.569943E8,2.0550605E8,1.2317696E7,2.7595008E7,1.1567362E8,2.1361152E7,1.5637792E7,3.3837496E7,7.681664E7,5.085937E7,3.820524E6,6.356581E6,1.6368106E7,1.0876816E7,3.370706E8,5.5398464E7,3.8918656E7,3.0304512E7,1.73728E6,5.03008E6,2.14661E7,8.056832E6,2.8681192E7,5.26172E6,7.746688E6,1.0955776E7,4.425248E6,2.4961968E7,8.774696E6,3.0622674E7,1.9728208E7,1.3900032E7,9.47763E6,1.8212844E7,1.401048E6,1.17304E6,5.342808E6,4.74748E6,4.4018535E6,7.271704E6,2.385008E6,1.498416E6,4.842976E7,4.088461E7,4.6775296E7,7.561652E6,1.2634272E7,2.4238848E7,6.413056E6,4.435712E6,0E0,0E0,0E0,0E0,0E0,0E0,0E0,0E0,0E0,0E0,0E0,0E0,0E0,0E0,0E0,0E0,0E0,0E0,0E0,0E0,0E0,0E0,0E0,0E0,0E0,0E0,0E0,0E0,0E0,0E0,0E0,0E0,0E0,0E0,0E0,0E0,0E0,0E0,0E0,0E0,0E0,0E0,0E0,0E0,0E0,0E0,0E0,0E0,0E0,0E0,0E0,0E0,0E0,0E0,0E0,0E0,0E0,0E0,0E0,0E0,0E0,0E0,0E0,0E0],"parents":[2147483647,0,0,1,1,2,2,3,3,4,4,5,5,6,6,7,7,8,8,9,9,10,10,11,11,12,12,13,13,14,14,15,15,16,16,17,17,18,18,19,19,20,20,21,21,22,22,23,23,24,24,25,25,26,26,27,27,28,28,29,29,30,30,31,31,32,32,33,33,34,34,35,35,36,36,37,37,38,38,39,39,40,40,41,41,42,42,43,43,44,44,45,45,46,46,47,47,48,48,49,49,50,50,51,51,52,52,53,53,54,54,55,55,56,56,57,57,58,58,59,59,60,60,61,61,62,62],"right_children":[2,4,6,8,10,12,14,16,18,20,22,24,26,28,30,32,34,36,38,40,42,44,46,48,50,52,54,56,58,60,62,64,66,68,70,72,74,76,78,80,82,84,86,88,90,92,94,96,98,100,102,104,106,108,110,112,114,116,118,120,122,124,126,-1,-1,-1,-1,-1,-1,-1,-1,-1,-1,-1,-1,-1,-1,-1,-1,-1,-1,-1,-1,-1,-1,-1,-1,-1,-1,-1,-1,-1,-1,-1,-1,-1,-1,-1,-1,-1,-1,-1,-1,-1,-1,-1,-1,-1,-1,-1,-1,-1,-1,-1,-1,-1,-1,-1,-1,-1,-1,-1,-1,-1,-1,-1,-1],"split_conditions":[1.538E3,1.178E3,-4.3388373E-1,9.84E2,1E0,1.4762926E3,2.308E3,8.4E2,-2.5881904E-1,1.354E3,-2.5881904E-1,1.2709535E3,2.646E3,1E0,2.728E3,7.44E2,-2.5881904E-1,1.0720376E3,1.086E3,-4.3388373E-1,-4.3388373E-1,1.3191666E3,1E0,1.1738727E3,-5E-1,1.966E3,1.7204678E3,1.966E3,-1.8369701E-16,1.696E3,2.0456666E3,6.94E2,5.06E2,9.302514E2,1.84E3,1E0,-4.3388373E-1,1E0,1E0,1.0392656E3,-2.5881904E-1,1.1136779E3,-5E-1,1.1429958E3,-7.0710677E-1,2.418E3,1.5426285E3,3.64E2,-7.818315E-1,1.3852917E3,-7.818315E-1,-5E-1,1.6014543E3,2.49E1,1.883612E3,1.798E3,1.4955834E3,1.5494253E3,2.604E3,1.5243334E3,2.528E3,1.7795834E3,3.04E3,-3.042341E1,-2.7395132E1,-2.4726665E1,-2.5524063E0,-1.781965E1,1.0510947E0,-2.1063177E1,-1.4478073E1,-1.6890013E1,-4.81252E-1,-9.980003E0,1.3943652E1,-1.7528212E1,-1.3864578E1,-1.4418894E1,-9.765264E0,-1.6074995E1,-1.1546638E1,2.5532365E0,-9.270572E0,-1.3508414E1,-6.8187747E0,9.874193E0,-2.978833E0,8.810421E-1,1.652301E1,3.304646E1,2.4311821E1,-7.029278E0,2.314819E0,-1.4396214E0,1.100638E1,-1.0987142E1,-2.6696869E1,-7.988949E0,-4.98748E0,-1.8493942E0,2.5135796E0,-5.671931E0,-2.5422508E-1,1.2453241E1,-1.3221248E0,3.936114E0,9.205747E0,6.2419295E0,1.1935973E1,1.7247938E1,2.2807646E1,5.6695023E0,1.19984045E1,1.3403699E1,2.2008253E1,2.1172445E1,4.015989E1,9.274104E0,2.1633936E1,4.967422E0,2.6105093E1,3.1452112E1,3.7244045E1,2.2437471E1,4.2244778E1,4.9530087E1,5.5223335E1],"split_indices":[15,15,7,15,8,16,15,15,6,15,6,16,34,8,15,15,6,16,15,7,7,36,28,16,6,34,16,15,6,36,36,15,0,16,32,8,7,8,8,16,6,16,6,16,6,32,16,23,7,16,7,6,16,1,16,15,36,16,32,36,15,36,15,0,0,0,0,0,0,0,0,0,0,0,0,0,0,0,0,0,0,0,0,0,0,0,0,0,0,0,0,0,0,0,0,0,0,0,0,0,0,0,0,0,0,0,0,0,0,0,0,0,0,0,0,0,0,0,0,0,0,0,0,0,0,0,0],"split_type":[0,0,0,0,0,0,0,0,0,0,0,0,0,0,0,0,0,0,0,0,0,0,0,0,0,0,0,0,0,0,0,0,0,0,0,0,0,0,0,0,0,0,0,0,0,0,0,0,0,0,0,0,0,0,0,0,0,0,0,0,0,0,0,0,0,0,0,0,0,0,0,0,0,0,0,0,0,0,0,0,0,0,0,0,0,0,0,0,0,0,0,0,0,0,0,0,0,0,0,0,0,0,0,0,0,0,0,0,0,0,0,0,0,0,0,0,0,0,0,0,0,0,0,0,0,0,0],"sum_hessian":[1.20019E5,7.0719E4,4.93E4,4.1507E4,2.9212E4,1.2508E4,3.6792E4,1.9173E4,2.2334E4,2.272E4,6.492E3,6.984E3,5.524E3,2.4774E4,1.2018E4,6.06E3,1.3113E4,1.991E3,2.0343E4,1.2794E4,9.926E3,3.391E3,3.101E3,2.223E3,4.761E3,3.882E3,1.642E3,2.247E4,2.304E3,8.975E3,3.043E3,2.371E3,3.689E3,6.19E2,1.2494E4,1.182E3,8.09E2,1.0792E4,9.551E3,5.237E3,7.557E3,4.342E3,5.584E3,1.502E3,1.889E3,1.448E3,1.653E3,7.73E2,1.45E3,2.934E3,1.827E3,1.236E3,2.646E3,9.95E2,6.47E2,1.2551E4,9.919E3,1.764E3,5.4E2,1.477E3,7.498E3,1.268E3,1.775E3,1.436E3,9.35E2,3.663E3,2.6E1,3.61E2,2.58E2,1.2001E4,4.93E2,7.77E2,4.05E2,2.3E1,7.86E2,9.046E3,1.746E3,8.039E3,1.512E3,6.19E2,4.618E3,4.76E2,7.081E3,5.64E2,3.778E3,5.09E2,5.075E3,2.4E2,1.262E3,1.052E3,8.37E2,1.087E3,3.61E2,3.82E2,1.271E3,7.59E2,1.4E1,9.41E2,5.09E2,1.775E3,1.159E3,1.223E3,6.04E2,6E1,1.176E3,1.448E3,1.198E3,2.49E2,7.46E2,4.62E2,1.85E2,7.471E3,5.08E3,1.665E3,8.254E3,4.34E2,1.33E3,1.97E2,3.43E2,7.5E1,1.402E3,4.256E3,3.242E3,4.6E1,1.222E3,1.073E3,7.02E2],"tree_param":{"num_deleted":"0","num_feature":"39","num_nodes":"127","size_leaf_vector":"1"}},{"base_weights":[-5.855161E-1,-2.2450745E2,3.166275E2,-3.462903E2,-7.010234E1,1.6479362E1,4.1963882E2,-4.3389856E2,-2.8474203E2,-1.5330772E2,2.1890172E2,-7.368907E1,1.3177773E2,2.8094556E2,6.7527783E2,-5.24005E2,-4.032265E2,-3.1133755E1,-3.0624066E2,-2.0151842E2,-9.168794E1,4.1501938E2,1.9824059E1,-1.5768167E2,-2.9341887E1,7.4424324E1,2.5589835E2,2.471193E2,5.8943665E2,5.999055E2,8.8648834E2,-5.762836E2,-4.963696E2,-2.0075327E2,-4.129581E2,-2.4433846E2,1.9098953E2,-3.4131482E2,-2.7689444E2,-2.3897295E2,-1.7577016E2,-1.5338493E2,-4.3335617E1,2.0777974E2,5.177541E2,-1.4099908E2,1.1651752E2,-2.108407E2,-1.2472843E2,-4.3921942E-1,-7.45744E1,-1.5157506E1,1.1827855E2,1.9454381E2,3.580782E2,1.4575119E2,3.681386E2,7.3010864E2,4.273725E2,4.4500262E2,6.278525E2,7.719295E2,9.716929E2,-2.9435993E1,-2.6469595E1,-2.4894056E1,-1.93096E0,-1.716438E1,5.962779E0,-2.2179543E1,-1.9504194E1,-1.6811644E1,-2.6827416E0,-1.3148383E1,1.0720076E1,-1.7619812E1,-1.4212712E1,-1.4514841E1,-1.0357298E1,-1.5845062E1,-1.1471935E1,3.807738E0,-9.313097E0,-1.3258578E1,-6.7986016E0,1.0054688E1,-3.314814E0,1.500251E1,-4.5630536E0,1.6829302E1,2.877854E1,-9.374114E0,-2.9404755E0,1.4183927E1,1.7835833E0,-1.02811E1,-2.5999805E1,-5.3862343E0,-8.657119E0,-1.6275505E0,2.2770321E0,-5.386295E0,-6.0407436E-1,-2.37473E0,4.08483E0,4.2234774E0,9.382373E0,6.147211E0,1.1378641E1,1.589668E1,2.1161266E1,4.3264914E0,9.754061E0,1.0777035E1,1.9571487E1,2.547793E1,4.6035946E1,1.1930896E1,2.5577751E1,7.7958794E0,2.4129967E1,2.9069212E1,3.4776302E1,1.6721685E1,3.927696E1,4.5425613E1,5.127965E1],"categories":[],"categories_nodes":[],"categories_segments":[],"categories_sizes":[],"default_left":[0,0,0,0,0,0,0,0,0,0,0,0,0,0,0,0,0,0,0,0,0,0,0,0,0,0,0,0,0,0,0,0,0,0,0,0,0,0,0,0,0,0,0,0,0,0,0,0,0,0,0,0,0,0,0,0,0,0,0,0,0,0,0,0,0,0,0,0,0,0,0,0,0,0,0,0,0,0,0,0,0,0,0,0,0,0,0,0,0,0,0,0,0,0,0,0,0,0,0,0,0,0,0,0,0,0,0,0,0,0,0,0,0,0,0,0,0,0,0,0,0,0,0,0,0,0,0],"id":8,"left_children":[1,3,5,7,9,11,13,15,17,19,21,23,25,27,29,31,33,35,37,39,41,43,45,47,49,51,53,55,57,59,61,63,65,67,69,71,73,75,77,79,81,83,85,87,89,91,93,95,97,99,101,103,105,107,109,111,113,115,117,119,121,123,125,-1,-1,-1,-1,-1,-1,-1,-1,-1,-1,-1,-1,-1,-1,-1,-1,-1,-1,-1,-1,-1,-1,-1,-1,-1,-1,-1,-1,-1,-1,-1,-1,-1,-1,-1,-1,-1,-1,-1,-1,-1,-1,-1,-1,-1,-1,-1,-1,-1,-1,-1,-1,-1,-1,-1,-1,-1,-1,-1,-1,-1,-1,-1,-1],"loss_changes":[8.5501373E9,1.3268168E9,1.5400515E9,2.1258547E8,7.482465E8,1.32333464E8,1.314603E9,4.4771584E7,1.2633498E8,7.175443E7,2.715724E8,2.6601868E7,3.974624E7,2.5073498E8,2.0708915E8,5.68064E6,2.3851264E7,8.585886E7,2.1893248E7,1.3029248E7,3.163608E7,7.449504E7,5.3712464E7,4.297052E6,6.113091E6,1.5016678E7,1.0995464E7,2.657586E8,5.383296E7,4.134477E7,3.2710656E7,5.176E5,1.855168E6,2.553818E7,7.947392E6,1.6190512E7,9.49408E6,6.050304E6,1.0817152E7,4.02784E6,2.1254464E7,9.034768E6,3.3395056E7,3.2117624E7,2.4337664E7,4.944076E6,2.9140174E7,1.4145E6,1.237582E6,4.215401E6,3.775469E6,3.9407792E6,6.002176E6,2.585196E6,1.59416E6,3.443509E7,3.5016576E7,5.292051E7,1.7452096E7,1.5934272E7,2.5202688E7,8.471936E6,5.74976E6,0E0,0E0,0E0,0E0,0E0,0E0,0E0,0E0,0E0,0E0,0E0,0E0,0E0,0E0,0E0,0E0,0E0,0E0,0E0,0E0,0E0,0E0,0E0,0E0,0E0,0E0,0E0,0E0,0E0,0E0,0E0,0E0,0E0,0E0,0E0,0E0,0E0,0E0,0E0,0E0,0E0,0E0,0E0,0E0,0E0,0E0,0E0,0E0,0E0,0E0,0E0,0E0,0E0,0E0,0E0,0E0,0E0,0E0,0E0,0E0,0E0,0E0,0E0,0E0],"parents":[2147483647,0,0,1,1,2,2,3,3,4,4,5,5,6,6,7,7,8,8,9,9,10,10,11,11,12,12,13,13,14,14,15,15,16,16,17,17,18,18,19,19,20,20,21,21,22,22,23,23,24,24,25,25,26,26,27,27,28,28,29,29,30,30,31,31,32,32,33,33,34,34,35,35,36,36,37,37,38,38,39,39,40,40,41,41,42,42,43,43,44,44,45,45,46,46,47,47,48,48,49,49,50,50,51,51,52,52,53,53,54,54,55,55,56,56,57,57,58,58,59,59,60,60,61,61,62,62],"right_children":[2,4,6,8,10,12,14,16,18,20,22,24,26,28,30,32,34,36,38,40,42,44,46,48,50,52,54,56,58,60,62,64,66,68,70,72,74,76,78,80,82,84,86,88,90,92,94,96,98,100,102,104,106,108,110,112,114,116,118,120,122,124,126,-1,-1,-1,-1,-1,-1,-1,-1,-1,-1,-1,-1,-1,-1,-1,-1,-1,-1,-1,-1,-1,-1,-1,-1,-1,-1,-1,-1,-1,-1,-1,-1,-1,-1,-1,-1,-1,-1,-1,-1,-1,-1,-1,-1,-1,-1,-1,-1,-1,-1,-1,-1,-1,-1,-1,-1,-1,-1,-1,-1,-1,-1,-1,-1],"split_conditions":[1.53E3,1.158E3,-4.3388373E-1,9.58E2,1E0,1.4762926E3,2.266E3,8E2,-2.5881904E-1,1.336E3,-2.5881904E-1,1.2785189E3,2.624E3,1E0,2.7E3,6.94E2,-2.5881904E-1,1.0304213E3,1.05E3,-4.3388373E-1,-4.3388373E-1,2.7186057E2,4.3136707E2,1.1884286E3,-5E-1,1.966E3,1.7204678E3,1.934E3,-5E-1,1.6690834E3,2.0344166E3,6E0,5.98E2,1.9030867E2,8.88E2,1E0,-4.3388373E-1,1E0,1E0,1.0304213E3,-5E-1,1.1076708E3,-5E-1,1.1E1,9.08E2,1.27E3,6.123234E-17,3.64E2,-5E-1,1.3852917E3,-7.818315E-1,1.85E3,2.74E1,2.55E1,1.8479801E3,1.722E3,1.4625E3,1.6070834E3,5.3746747E2,4.9630414E2,2.512E3,5.676019E2,2.974E3,-2.9435993E1,-2.6469595E1,-2.4894056E1,-1.93096E0,-1.716438E1,5.962779E0,-2.2179543E1,-1.9504194E1,-1.6811644E1,-2.6827416E0,-1.3148383E1,1.0720076E1,-1.7619812E1,-1.4212712E1,-1.4514841E1,-1.0357298E1,-1.5845062E1,-1.1471935E1,3.807738E0,-9.313097E0,-1.3258578E1,-6.7986016E0,1.0054688E1,-3.314814E0,1.500251E1,-4.5630536E0,1.6829302E1,2.877854E1,-9.374114E0,-2.9404755E0,1.4183927E1,1.7835833E0,-1.02811E1,-2.5999805E1,-5.3862343E0,-8.657119E0,-1.6275505E0,2.2770321E0,-5.386295E0,-6.0407436E-1,-2.37473E0,4.08483E0,4.2234774E0,9.382373E0,6.147211E0,1.1378641E1,1.589668E1,2.1161266E1,4.3264914E0,9.754061E0,1.0777035E1,1.9571487E1,2.547793E1,4.6035946E1,1.1930896E1,2.5577751E1,7.7958794E0,2.4129967E1,2.9069212E1,3.4776302E1,1.6721685E1,3.927696E1,4.5425613E1,5.127965E1],"split_indices":[15,15,7,15,8,16,15,15,6,15,6,16,34,8,15,15,6,16,15,7,7,37,37,16,6,34,16,15,6,36,36,21,0,37,15,8,7,8,8,16,6,16,6,21,33,15,6,23,6,16,7,15,1,1,16,15,36,36,37,37,15,37,15,0,0,0,0,0,0,0,0,0,0,0,0,0,0,0,0,0,0,0,0,0,0,0,0,0,0,0,0,0,0,0,0,0,0,0,0,0,0,0,0,0,0,0,0,0,0,0,0,0,0,0,0,0,0,0,0,0,0,0,0,0,0,0,0],"split_type":[0,0,0,0,0,0,0,0,0,0,0,0,0,0,0,0,0,0,0,0,0,0,0,0,0,0,0,0,0,0,0,0,0,0,0,0,0,0,0,0,0,0,0,0,0,0,0,0,0,0,0,0,0,0,0,0,0,0,0,0,0,0,0,0,0,0,0,0,0,0,0,0,0,0,0,0,0,0,0,0,0,0,0,0,0,0,0,0,0,0,0,0,0,0,0,0,0,0,0,0,0,0,0,0,0,0,0,0,0,0,0,0,0,0,0,0,0,0,0,0,0,0,0,0,0,0,0],"sum_hessian":[1.2037E5,7.0561E4,4.9809E4,3.9447E4,3.1114E4,1.2727E4,3.7082E4,1.6275E4,2.3172E4,2.4159E4,6.955E3,7.142E3,5.585E3,2.4041E4,1.3041E4,4.129E3,1.2146E4,1.811E3,2.1361E4,1.3553E4,1.0606E4,3.503E3,3.452E3,2.467E3,4.675E3,3.821E3,1.764E3,2.1667E4,2.374E3,9.614E3,3.427E3,1.421E3,2.708E3,5.58E2,1.1588E4,9.24E2,8.87E2,9.726E3,1.1635E4,5.518E3,8.035E3,4.659E3,5.947E3,1.162E3,2.341E3,1.296E3,2.156E3,9.42E2,1.525E3,2.853E3,1.822E3,1.256E3,2.565E3,1.104E3,6.6E2,1.1792E4,9.875E3,1.269E3,1.105E3,1.472E3,8.142E3,1.466E3,1.961E3,1.114E3,3.07E2,2.699E3,9E0,3.86E2,1.72E2,4.946E3,6.642E3,6.23E2,3.01E2,4.3E1,8.44E2,8.14E3,1.586E3,9.757E3,1.878E3,5.98E2,4.92E3,3.21E2,7.714E3,6.26E2,4.033E3,5.1E2,5.437E3,8.88E2,2.74E2,5.68E2,1.773E3,8.27E2,4.69E2,7.02E2,1.454E3,9.28E2,1.4E1,1.131E3,3.94E2,1.68E3,1.173E3,1.19E3,6.32E2,9.42E2,3.14E2,1.726E3,8.39E2,3.5E2,7.54E2,4.12E2,2.48E2,5.36E3,6.432E3,1.309E3,8.566E3,5.9E2,6.79E2,3.42E2,7.63E2,1.7E2,1.302E3,4.833E3,3.309E3,4.5E1,1.421E3,9.11E2,1.05E3],"tree_param":{"num_deleted":"0","num_feature":"39","num_nodes":"127","size_leaf_vector":"1"}},{"base_weights":[4.6070283E-3,-2.4594914E2,2.6115698E2,-3.5360385E2,-1.2886267E2,1.2954677E2,4.9298032E2,-4.4151224E2,-3.0966592E2,-1.9645042E2,1.0719189E2,8.486032E1,4.849417E2,9.340561E1,5.904028E2,-5.2953107E2,-4.168131E2,-8.376934E1,-3.2463495E2,-2.4448839E2,-1.54092E2,3.3276892E2,-6.8522125E1,-5.4677162E1,1.5717714E2,5.802925E2,2.3018892E2,1.1803717E1,2.3552559E2,4.9418268E2,7.635396E2,-5.6203064E2,-5.0767432E2,-2.4584952E2,-4.247531E2,-2.769767E2,1.0528096E2,-3.3689984E2,-2.5396307E2,-2.7503122E2,-2.2559288E2,-1.968294E2,-1.22490036E2,1.6603622E2,4.2820065E2,5.5742565E1,-1.7218544E2,-1.4870084E2,-3.7846262E0,6.10257E1,2.6538028E2,3.2479855E2,6.83765E2,1.3806071E2,3.499371E2,-6.10472E1,5.341955E1,1.6441902E2,2.979265E2,3.797966E2,5.3101794E2,6.667822E2,8.8037195E2,-2.8323328E1,-2.0712833E1,-2.5427082E1,3.5168417E0,-1.823192E1,8.822578E0,-2.1404245E1,-1.2230041E1,-1.8244612E1,-5.344844E0,-1.0297741E1,7.485782E0,-1.8091417E1,-1.541101E1,-1.6415182E0,-1.3973307E1,-1.474116E1,-1.239397E1,-6.00489E-1,-1.171557E1,-1.4266065E1,-9.270927E0,3.3892915E0,-6.976547E0,-4.013326E0,1.0979939E1,2.3219301E1,1.378647E1,1.2453449E1,9.390945E-1,-1.1580914E1,-5.512249E0,-1.0905229E1,-6.090278E0,-3.651573E0,2.8990939E0,2.611907E0,2.9820402E1,1.899292E0,1.4043323E1,2.0190315E0,2.074124E1,3.81776E1,2.6796778E1,-7.138185E-1,9.539294E0,2.0341063E1,7.665259E0,-5.6897044E0,-1.635813E0,1.737348E0,5.7842193E0,1.0753958E1,5.728546E0,1.7517727E1,1.165446E1,8.545562E0,2.0577639E1,2.3694279E1,2.8627668E1,1.644381E1,3.390208E1,3.818054E1,4.6436672E1],"categories":[],"categories_nodes":[],"categories_segments":[],"categories_sizes":[],"default_left":[0,0,0,0,0,0,0,0,0,0,0,0,0,0,0,0,0,0,0,0,0,0,0,0,0,0,0,0,0,0,0,0,0,0,0,0,0,0,0,0,0,0,0,0,0,0,0,0,0,0,0,0,0,0,0,0,0,0,0,0,0,0,0,0,0,0,0,0,0,0,0,0,0,0,0,0,0,0,0,0,0,0,0,0,0,0,0,0,0,0,0,0,0,0,0,0,0,0,0,0,0,0,0,0,0,0,0,0,0,0,0,0,0,0,0,0,0,0,0,0,0,0,0,0,0,0,0],"id":9,"left_children":[1,3,5,7,9,11,13,15,17,19,21,23,25,27,29,31,33,35,37,39,41,43,45,47,49,51,53,55,57,59,61,63,65,67,69,71,73,75,77,79,81,83,85,87,89,91,93,95,97,99,101,103,105,107,109,111,113,115,117,119,121,123,125,-1,-1,-1,-1,-1,-1,-1,-1,-1,-1,-1,-1,-1,-1,-1,-1,-1,-1,-1,-1,-1,-1,-1,-1,-1,-1,-1,-1,-1,-1,-1,-1,-1,-1,-1,-1,-1,-1,-1,-1,-1,-1,-1,-1,-1,-1,-1,-1,-1,-1,-1,-1,-1,-1,-1,-1,-1,-1,-1,-1,-1,-1,-1,-1],"loss_changes":[7.7215785E9,7.803118E8,1.7788703E9,1.2444083E8,4.7318067E8,5.906335E8,8.218619E8,2.3140992E7,7.270118E7,4.687699E7,2.6170658E8,3.3341216E8,1.0077069E8,4.8009876E7,2.8241306E8,1.384704E6,1.1292544E7,4.8900836E7,1.7398272E7,6.172032E6,1.6527296E7,4.5929344E7,4.7826424E7,5.3970624E7,2.2639309E8,7.966925E7,1.245116E7,7.9798E6,6.651064E6,4.578381E7,6.794035E7,3.78912E5,7.456E5,1.8876092E7,4.7104E6,9.859648E6,9.393514E6,1.217472E7,1.6836192E7,2.143104E6,1.2434368E7,5.205984E6,2.2862384E7,1.3922628E7,1.0012608E7,1.206403E7,7.425416E6,7.36716E6,3.1308584E7,5.4185852E7,3.6045696E7,2.2336464E7,2.4949824E7,5.159264E6,5.440764E6,1.426388E6,1.9434125E6,1.763278E6,2.64796E6,1.7587744E7,1.9313152E7,1.2408192E7,1.4779904E7,0E0,0E0,0E0,0E0,0E0,0E0,0E0,0E0,0E0,0E0,0E0,0E0,0E0,0E0,0E0,0E0,0E0,0E0,0E0,0E0,0E0,0E0,0E0,0E0,0E0,0E0,0E0,0E0,0E0,0E0,0E0,0E0,0E0,0E0,0E0,0E0,0E0,0E0,0E0,0E0,0E0,0E0,0E0,0E0,0E0,0E0,0E0,0E0,0E0,0E0,0E0,0E0,0E0,0E0,0E0,0E0,0E0,0E0,0E0,0E0,0E0,0E0,0E0,0E0],"parents":[2147483647,0,0,1,1,2,2,3,3,4,4,5,5,6,6,7,7,8,8,9,9,10,10,11,11,12,12,13,13,14,14,15,15,16,16,17,17,18,18,19,19,20,20,21,21,22,22,23,23,24,24,25,25,26,26,27,27,28,28,29,29,30,30,31,31,32,32,33,33,34,34,35,35,36,36,37,37,38,38,39,39,40,40,41,41,42,42,43,43,44,44,45,45,46,46,47,47,48,48,49,49,50,50,51,51,52,52,53,53,54,54,55,55,56,56,57,57,58,58,59,59,60,60,61,61,62,62],"right_children":[2,4,6,8,10,12,14,16,18,20,22,24,26,28,30,32,34,36,38,40,42,44,46,48,50,52,54,56,58,60,62,64,66,68,70,72,74,76,78,80,82,84,86,88,90,92,94,96,98,100,102,104,106,108,110,112,114,116,118,120,122,124,126,-1,-1,-1,-1,-1,-1,-1,-1,-1,-1,-1,-1,-1,-1,-1,-1,-1,-1,-1,-1,-1,-1,-1,-1,-1,-1,-1,-1,-1,-1,-1,-1,-1,-1,-1,-1,-1,-1,-1,-1,-1,-1,-1,-1,-1,-1,-1,-1,-1,-1,-1,-1,-1,-1,-1,-1,-1,-1,-1,-1,-1,-1,-1,-1],"split_conditions":[1.404E3,1.098E3,2.136E3,9.04E2,1E0,1E0,-7.818315E-1,7.44E2,-2.5881904E-1,1.218E3,-2.5881904E-1,-4.3388373E-1,-1.8369701E-16,1.6014543E3,2.546E3,6.6E2,-2.5881904E-1,9.773572E2,1.758E3,-4.3388373E-1,-4.3388373E-1,1.2356836E3,-5E-1,1.2860255E3,1.798E3,1.46575E3,6.54155E2,1.4161754E3,1.7246005E3,1.6355834E3,1.9900834E3,1.508E3,1.712E3,9.1031244E2,1.85E3,1E0,1.4026225E2,1.004E3,-5E-1,1.4399076E3,-2.5881904E-1,1.0477098E3,-2.5881904E-1,2.5881904E-1,-5E-1,-1.8369701E-16,6E0,1.1535587E3,1.988E3,2.11E3,1.3488334E3,1.3191666E3,-5E-1,2.032E3,-7.0710677E-1,1.3266543E3,6.86E0,-7.0710677E-1,-5E-1,4.7013596E2,2.334E3,1.696E3,2.808E3,-2.8323328E1,-2.0712833E1,-2.5427082E1,3.5168417E0,-1.823192E1,8.822578E0,-2.1404245E1,-1.2230041E1,-1.8244612E1,-5.344844E0,-1.0297741E1,7.485782E0,-1.8091417E1,-1.541101E1,-1.6415182E0,-1.3973307E1,-1.474116E1,-1.239397E1,-6.00489E-1,-1.171557E1,-1.4266065E1,-9.270927E0,3.3892915E0,-6.976547E0,-4.013326E0,1.0979939E1,2.3219301E1,1.378647E1,1.2453449E1,9.390945E-1,-1.1580914E1,-5.512249E0,-1.0905229E1,-6.090278E0,-3.651573E0,2.8990939E0,2.611907E0,2.9820402E1,1.899292E0,1.4043323E1,2.0190315E0,2.074124E1,3.81776E1,2.6796778E1,-7.138185E-1,9.539294E0,2.0341063E1,7.665259E0,-5.6897044E0,-1.635813E0,1.737348E0,5.7842193E0,1.0753958E1,5.728546E0,1.7517727E1,1.165446E1,8.545562E0,2.0577639E1,2.3694279E1,2.8627668E1,1.644381E1,3.390208E1,3.818054E1,4.6436672E1],"split_indices":[15,15,15,15,8,8,7,15,6,15,6,7,6,16,15,15,6,16,32,7,7,16,5,16,15,36,37,16,16,36,36,32,34,16,32,8,37,15,5,16,6,16,6,5,6,6,21,16,34,34,36,36,6,32,5,16,12,6,6,37,15,36,15,0,0,0,0,0,0,0,0,0,0,0,0,0,0,0,0,0,0,0,0,0,0,0,0,0,0,0,0,0,0,0,0,0,0,0,0,0,0,0,0,0,0,0,0,0,0,0,0,0,0,0,0,0,0,0,0,0,0,0,0,0,0,0,0],"split_type":[0,0,0,0,0,0,0,0,0,0,0,0,0,0,0,0,0,0,0,0,0,0,0,0,0,0,0,0,0,0,0,0,0,0,0,0,0,0,0,0,0,0,0,0,0,0,0,0,0,0,0,0,0,0,0,0,0,0,0,0,0,0,0,0,0,0,0,0,0,0,0,0,0,0,0,0,0,0,0,0,0,0,0,0,0,0,0,0,0,0,0,0,0,0,0,0,0,0,0,0,0,0,0,0,0,0,0,0,0,0,0,0,0,0,0,0,0,0,0,0,0,0,0,0,0,0,0],"sum_hessian":[1.20213E5,6.1908E4,5.8305E4,3.2252E4,2.9656E4,3.7192E4,2.1113E4,1.0745E4,2.1507E4,2.3055E4,6.601E3,3.3039E4,4.153E3,4.139E3,1.6974E4,2.35E3,8.395E3,1.337E3,2.017E4,1.0801E4,1.2254E4,2.89E3,3.711E3,1.1278E4,2.1761E4,3.021E3,1.132E3,2.63E3,1.509E3,1.0913E4,6.061E3,9.35E2,1.415E3,3.74E2,8.021E3,6.61E2,6.76E2,1.7184E4,2.986E3,4.123E3,6.678E3,5.207E3,7.047E3,1.053E3,1.837E3,1.688E3,2.023E3,3.96E3,7.318E3,1.1523E4,1.0238E4,8.72E2,2.149E3,6.41E2,4.91E2,9.56E2,1.674E3,7.07E2,8.02E2,2.661E3,8.252E3,3.319E3,2.742E3,9.05E2,3E1,1.413E3,2E0,2.92E2,8.2E1,7.874E3,1.47E2,4.35E2,2.26E2,8.4E1,5.92E2,9.187E3,7.997E3,3.09E2,2.677E3,2.379E3,1.744E3,2.62E2,6.416E3,5.92E2,4.615E3,5.79E2,6.468E3,1.88E2,8.65E2,1.483E3,3.54E2,2.7E2,1.418E3,1.031E3,9.92E2,1.104E3,2.856E3,3.45E3,3.868E3,1.1338E4,1.85E2,6.53E2,9.585E3,2.1E2,6.62E2,1.393E3,7.56E2,1.65E2,4.76E2,3.8E2,1.11E2,3.33E2,6.23E2,1.289E3,3.85E2,3.49E2,3.58E2,4.41E2,3.61E2,3.52E2,2.309E3,3.479E3,4.773E3,1.08E2,3.211E3,8.08E2,1.934E3],"tree_param":{"num_deleted":"0","num_feature":"39","num_nodes":"127","size_leaf_vector":"1"}},{"base_weights":[-1.527779E-1,-1.9084555E2,3.028562E2,-3.0570166E2,-4.2567913E1,1.3092691E2,4.5214313E2,-3.7492245E2,-2.3564407E2,-1.1921451E2,2.306351E2,-1.943247E1,2.2797594E2,5.8722815E2,3.0755423E2,-4.5375546E2,-3.428841E2,-4.6672726E0,-2.5892142E2,-1.6677867E2,-6.0643566E1,3.7060495E2,1.4868126E1,-1.0845745E2,4.0934494E1,6.488018E1,2.7305585E2,1.9754945E2,6.506964E2,2.1298198E2,4.647422E2,-5.024282E2,-4.2343866E2,-1.6207765E2,-3.5220743E2,-1.8012396E2,2.3102011E2,-2.7141492E2,-1.87413E2,-2.0240404E2,-1.4165826E2,-1.20278595E2,-1.3602523E1,1.4139424E2,4.4684525E2,-1.2150291E2,9.6902626E1,-1.6829134E2,-7.157226E1,4.81976E0,1.2373558E2,-1.5400127E2,9.6450615E1,3.4453323E2,1.5545306E2,1.13185074E2,3.048083E2,5.5437463E2,7.919305E2,1.8686331E2,4.7668167E2,1.9043741E2,4.9515845E2,-2.667365E1,-2.4066578E1,-1.41521015E1,-2.1456623E1,-1.6575064E1,1.8241568E0,-1.80492E1,-1.4361194E1,-1.7095838E-1,-1.5158797E1,1.5313637E0,1.2759585E1,-1.466038E1,-1.2421165E1,-1.7790431E0,-1.0798368E1,-1.107944E1,-8.143126E0,2.3825004E0,-7.7673545E0,-9.067083E0,-4.5425034E0,-1.2461185E0,2.3845686E1,-6.0113864E0,1.1591415E1,1.6852507E1,2.6445145E1,-7.7999635E0,-1.376262E0,-1.0477894E-1,9.265002E0,-8.087167E0,-1.6621613E1,-2.1849282E0,-5.1966443E0,8.538352E-1,-5.310447E0,3.334995E0,7.6304584E0,-1.6523445E1,-1.545643E0,5.227516E0,-2.3617964E1,1.3435887E1,2.0644865E1,1.02662735E1,3.4598691E0,3.8013444E0,1.033621E1,1.3722762E1,2.1048323E1,2.4786856E1,3.0940369E1,3.48692E1,4.513502E1,5.2272844E0,1.18930645E1,2.8508936E1,1.4315366E1,1.2030482E1,3.0975547E0,2.286041E1,3.4440258E1],"categories":[],"categories_nodes":[],"categories_segments":[],"categories_sizes":[],"default_left":[0,0,0,0,0,0,0,0,0,0,0,0,0,0,0,0,0,0,0,0,0,0,0,0,0,0,0,0,0,0,0,0,0,0,0,0,0,0,0,0,0,0,0,0,0,0,0,0,0,0,0,0,0,0,0,0,0,0,0,0,0,0,0,0,0,0,0,0,0,0,0,0,0,0,0,0,0,0,0,0,0,0,0,0,0,0,0,0,0,0,0,0,0,0,0,0,0,0,0,0,0,0,0,0,0,0,0,0,0,0,0,0,0,0,0,0,0,0,0,0,0,0,0,0,0,0,0],"id":10,"left_children":[1,3,5,7,9,11,13,15,17,19,21,23,25,27,29,31,33,35,37,39,41,43,45,47,49,51,53,55,57,59,61,63,65,67,69,71,73,75,77,79,81,83,85,87,89,91,93,95,97,99,101,103,105,107,109,111,113,115,117,119,121,123,125,-1,-1,-1,-1,-1,-1,-1,-1,-1,-1,-1,-1,-1,-1,-1,-1,-1,-1,-1,-1,-1,-1,-1,-1,-1,-1,-1,-1,-1,-1,-1,-1,-1,-1,-1,-1,-1,-1,-1,-1,-1,-1,-1,-1,-1,-1,-1,-1,-1,-1,-1,-1,-1,-1,-1,-1,-1,-1,-1,-1,-1,-1,-1,-1],"loss_changes":[6.9351235E9,1.2545288E9,1.1898278E9,2.0121216E8,6.733558E8,3.144232E8,4.8446208E8,5.2575744E7,1.1093261E8,6.994608E7,2.1275962E8,4.5432276E7,9.626118E7,3.171118E8,1.780951E8,8.685056E6,2.497408E7,7.819866E7,1.6694912E7,1.237232E7,3.1571944E7,7.460787E7,3.1033684E7,7.527012E6,1.5064732E7,1.961904E7,8.618291E7,1.6235288E7,1.4961203E8,5.1470656E7,3.746739E7,1.255488E6,2.853888E6,2.4569938E7,7.94944E6,2.356932E7,3.901148E6,7.920896E6,1.2092624E7,4.309136E6,2.1075536E7,8.902016E6,3.4954204E7,2.5296256E7,2.8706304E7,3.373751E6,1.5157437E7,1.345616E6,1.90321E6,4.7771155E6,2.509462E6,7.765944E6,1.1475234E7,3.2956992E7,1.6676696E7,3.487835E6,2.673336E6,2.4481664E7,4.618445E7,2.857632E7,1.1833568E7,2.892442E6,2.9462912E7,0E0,0E0,0E0,0E0,0E0,0E0,0E0,0E0,0E0,0E0,0E0,0E0,0E0,0E0,0E0,0E0,0E0,0E0,0E0,0E0,0E0,0E0,0E0,0E0,0E0,0E0,0E0,0E0,0E0,0E0,0E0,0E0,0E0,0E0,0E0,0E0,0E0,0E0,0E0,0E0,0E0,0E0,0E0,0E0,0E0,0E0,0E0,0E0,0E0,0E0,0E0,0E0,0E0,0E0,0E0,0E0,0E0,0E0,0E0,0E0,0E0,0E0,0E0,0E0],"parents":[2147483647,0,0,1,1,2,2,3,3,4,4,5,5,6,6,7,7,8,8,9,9,10,10,11,11,12,12,13,13,14,14,15,15,16,16,17,17,18,18,19,19,20,20,21,21,22,22,23,23,24,24,25,25,26,26,27,27,28,28,29,29,30,30,31,31,32,32,33,33,34,34,35,35,36,36,37,37,38,38,39,39,40,40,41,41,42,42,43,43,44,44,45,45,46,46,47,47,48,48,49,49,50,50,51,51,52,52,53,53,54,54,55,55,56,56,57,57,58,58,59,59,60,60,61,61,62,62],"right_children":[2,4,6,8,10,12,14,16,18,20,22,24,26,28,30,32,34,36,38,40,42,44,46,48,50,52,54,56,58,60,62,64,66,68,70,72,74,76,78,80,82,84,86,88,90,92,94,96,98,100,102,104,106,108,110,112,114,116,118,120,122,124,126,-1,-1,-1,-1,-1,-1,-1,-1,-1,-1,-1,-1,-1,-1,-1,-1,-1,-1,-1,-1,-1,-1,-1,-1,-1,-1,-1,-1,-1,-1,-1,-1,-1,-1,-1,-1,-1,-1,-1,-1,-1,-1,-1,-1,-1,-1,-1,-1,-1,-1,-1,-1,-1,-1,-1,-1,-1,-1,-1,-1,-1,-1,-1,-1],"split_conditions":[1.588E3,1.178E3,1.6355834E3,1E3,1E0,-4.3388373E-1,-5E-1,8.4E2,-2.5881904E-1,1.372E3,-1.8369701E-16,1.3547515E3,1.3851666E3,-4.3388373E-1,2.136E3,7.44E2,-2.5881904E-1,1.0720376E3,1.912E3,-4.3388373E-1,-4.3388373E-1,2.5411157E2,4.7236203E2,1.2356836E3,2.59E1,3.57862E2,-5E-1,1.6544131E3,1.8314781E3,1E0,-7.818315E-1,6.6E2,-2.5881904E-1,1.5327702E2,1.668E3,2E0,1.8042871E2,1.086E3,-5E-1,2.25E1,-2.5881904E-1,-7.818315E-1,1.954E3,5E-1,1.478E3,1.324E3,1.36E3,3.58E2,-7.0710677E-1,2E1,1.4955834E3,1.2359166E3,3.63E2,1.4628728E3,-1.8369701E-16,2.838E2,1.8539464E3,1.6865731E3,2.87E1,1.808E3,6.123234E-17,1.2246469E-16,2.584E3,-2.667365E1,-2.4066578E1,-1.41521015E1,-2.1456623E1,-1.6575064E1,1.8241568E0,-1.80492E1,-1.4361194E1,-1.7095838E-1,-1.5158797E1,1.5313637E0,1.2759585E1,-1.466038E1,-1.2421165E1,-1.7790431E0,-1.0798368E1,-1.107944E1,-8.143126E0,2.3825004E0,-7.7673545E0,-9.067083E0,-4.5425034E0,-1.2461185E0,2.3845686E1,-6.0113864E0,1.1591415E1,1.6852507E1,2.6445145E1,-7.7999635E0,-1.376262E0,-1.0477894E-1,9.265002E0,-8.087167E0,-1.6621613E1,-2.1849282E0,-5.1966443E0,8.538352E-1,-5.310447E0,3.334995E0,7.6304584E0,-1.6523445E1,-1.545643E0,5.227516E0,-2.3617964E1,1.3435887E1,2.0644865E1,1.02662735E1,3.4598691E0,3.8013444E0,1.033621E1,1.3722762E1,2.1048323E1,2.4786856E1,3.0940369E1,3.48692E1,4.513502E1,5.2272844E0,1.18930645E1,2.8508936E1,1.4315366E1,1.2030482E1,3.0975547E0,2.286041E1,3.4440258E1],"split_indices":[15,15,36,15,8,7,6,15,6,15,6,16,36,7,15,15,6,16,32,7,7,37,37,16,1,37,6,16,16,8,7,15,6,37,32,22,37,15,5,1,6,7,34,5,34,15,34,23,6,21,36,36,23,16,6,29,16,16,1,15,6,5,15,0,0,0,0,0,0,0,0,0,0,0,0,0,0,0,0,0,0,0,0,0,0,0,0,0,0,0,0,0,0,0,0,0,0,0,0,0,0,0,0,0,0,0,0,0,0,0,0,0,0,0,0,0,0,0,0,0,0,0,0,0,0,0,0],"split_type":[0,0,0,0,0,0,0,0,0,0,0,0,0,0,0,0,0,0,0,0,0,0,0,0,0,0,0,0,0,0,0,0,0,0,0,0,0,0,0,0,0,0,0,0,0,0,0,0,0,0,0,0,0,0,0,0,0,0,0,0,0,0,0,0,0,0,0,0,0,0,0,0,0,0,0,0,0,0,0,0,0,0,0,0,0,0,0,0,0,0,0,0,0,0,0,0,0,0,0,0,0,0,0,0,0,0,0,0,0,0,0,0,0,0,0,0,0,0,0,0,0,0,0,0,0,0,0],"sum_hessian":[1.20021E5,7.3663E4,4.6358E4,4.1509E4,3.2154E4,2.1546E4,2.4812E4,2.0877E4,2.0632E4,2.511E4,7.044E3,8.452E3,1.3094E4,1.2826E4,1.1986E4,6.029E3,1.4848E4,1.889E3,1.8743E4,1.3856E4,1.1254E4,4.272E3,2.772E3,3.415E3,5.037E3,2.836E3,1.0258E4,1.797E3,1.1029E4,7.485E3,4.501E3,2.308E3,3.721E3,7.29E2,1.4119E4,1.083E3,8.06E2,1.5953E4,2.79E3,5.727E3,8.129E3,4.962E3,6.292E3,1.067E3,3.205E3,1.041E3,1.731E3,1.301E3,2.114E3,3.508E3,1.529E3,3.57E2,2.479E3,6.379E3,3.879E3,1.007E3,7.9E2,6.56E3,4.469E3,6.812E3,6.73E2,4.5E2,4.051E3,9.24E2,1.384E3,1.47E2,3.574E3,3.93E2,3.36E2,1.2435E4,1.684E3,4.45E2,6.38E2,8.7E1,7.19E2,8.184E3,7.769E3,4.42E2,2.348E3,3.853E3,1.874E3,5.48E2,7.581E3,1.612E3,3.35E3,6.151E3,1.41E2,2.74E2,7.93E2,1.373E3,1.832E3,7.61E2,2.8E2,8.17E2,9.14E2,1.253E3,4.8E1,1.137E3,9.77E2,3.16E3,3.48E2,5.15E2,1.014E3,1.46E2,2.11E2,2.445E3,3.4E1,3.027E3,3.352E3,2.457E3,1.422E3,7.22E2,2.85E2,6.29E2,1.61E2,3.439E3,3.121E3,2.415E3,2.054E3,2.607E3,4.205E3,4.5E2,2.23E2,3.23E2,1.27E2,3.39E3,6.61E2],"tree_param":{"num_deleted":"0","num_feature":"39","num_nodes":"127","size_leaf_vector":"1"}},{"base_weights":[4.0993306E-1,-2.3888782E2,1.8864455E2,9.2891266E1,-2.7298706E2,3.0347726E2,-6.0609436E1,-1.2830508E2,2.5822473E2,-3.4113382E2,-1.9725204E2,4.2818057E2,1.1377152E2,-1.3583156E2,4.632111E1,-3.1280856E2,-2.997999E1,1.933208E2,3.6685214E2,-4.0582892E2,-3.0521185E2,-2.2901753E2,-1.1578819E2,2.3513443E2,5.75994E2,3.5314568E1,2.8555405E2,-2.4684952E2,-1.03808334E2,-6.413689E1,1.2015493E2,-1.1564208E2,-3.6479962E2,-1.6272514E1,-5.386084E2,4.2811935E2,1.7498682E2,2.3324625E2,4.2767972E2,-4.752406E2,-3.8271042E2,-3.1978952E2,-2.3062964E2,-2.049391E2,-2.7145804E2,3.5956146E1,-1.486769E2,1.6062328E1,2.897071E2,4.802806E2,6.8890155E2,-3.4827175E1,1.5470714E2,2.26746E2,4.1927795E2,-3.4064816E2,-2.1996672E2,-2.0651845E2,-7.805401E1,-1.3531407E2,-3.6794822E0,4.8412674E1,2.1685168E2,-1.8198448E1,-1.7000256E0,-2.0999159E1,-1.5369182E1,6.426348E-1,-1.2180518E1,-2.9300104E1,8.902818E0,2.354074E1,-3.2462463E0,1.0402519E1,3.71125E0,1.8175215E1,9.582544E0,2.3057934E1,1.5648455E1,-2.4968168E1,-2.2180113E1,-1.9313036E1,-5.3327365E0,-1.5158925E1,-1.7892128E1,1.364135E0,-1.2505487E1,-6.8785872E0,-1.099956E1,-1.5100154E1,-1.1504359E1,8.030463E0,-4.260315E-1,-8.544776E0,-2.732723E0,2.0109458E0,-2.4803589E1,1.0106351E1,1.6846085E1,2.6993473E1,1.8561085E1,3.0076635E1,4.0466496E1,-4.0163565E0,1.9974304E0,1.075051E-1,1.0810996E1,9.666633E0,2.1987309E1,1.9035528E1,2.8418076E1,-2.025228E1,-1.5485265E1,-1.2560728E1,-9.765632E0,-1.1084453E1,-7.730349E0,-6.3589325E0,-2.4969118E0,-8.1393E0,-5.14941E0,1.7916552E0,-5.417705E0,-1.6963291E0,3.768257E0,8.615508E0,1.4304988E1],"categories":[],"categories_nodes":[],"categories_segments":[],"categories_sizes":[],"default_left":[0,0,0,0,0,0,0,0,0,0,0,0,0,0,0,0,0,0,0,0,0,0,0,0,0,0,0,0,0,0,0,0,0,0,0,0,0,0,0,0,0,0,0,0,0,0,0,0,0,0,0,0,0,0,0,0,0,0,0,0,0,0,0,0,0,0,0,0,0,0,0,0,0,0,0,0,0,0,0,0,0,0,0,0,0,0,0,0,0,0,0,0,0,0,0,0,0,0,0,0,0,0,0,0,0,0,0,0,0,0,0,0,0,0,0,0,0,0,0,0,0,0,0,0,0,0,0],"id":11,"left_children":[1,3,5,7,9,11,13,15,17,19,21,23,25,27,29,31,33,35,37,39,41,43,45,47,49,51,53,55,57,59,61,63,65,67,69,71,73,75,77,79,81,83,85,87,89,91,93,95,97,99,101,103,105,107,109,111,113,115,117,119,121,123,125,-1,-1,-1,-1,-1,-1,-1,-1,-1,-1,-1,-1,-1,-1,-1,-1,-1,-1,-1,-1,-1,-1,-1,-1,-1,-1,-1,-1,-1,-1,-1,-1,-1,-1,-1,-1,-1,-1,-1,-1,-1,-1,-1,-1,-1,-1,-1,-1,-1,-1,-1,-1,-1,-1,-1,-1,-1,-1,-1,-1,-1,-1,-1,-1],"loss_changes":[5.394574E9,5.965706E8,1.9186714E9,1.7978038E8,2.4671053E8,1.0855918E9,1.7007091E8,3.8141828E7,1.976168E7,5.836365E7,5.858317E7,7.899653E8,2.4532144E8,4.410091E7,7.122186E7,7.451216E6,9.563807E6,7.514436E6,8.441664E6,1.4231424E7,1.7524096E7,1.6595264E7,3.1726056E7,1.435671E8,1.6912998E8,1.046603E8,4.4785024E7,6.93E6,2.547068E7,1.5056358E7,3.6299024E7,3.1097895E6,1.702248E6,8.862381E6,1.327095E6,2.704012E6,5.438296E6,1.723734E6,2.624592E6,1.488064E6,6.567488E6,8.448384E6,1.3320848E7,1.0515552E7,7.379872E6,6.282911E6,1.0903864E7,2.9661852E7,3.9686464E7,5.497357E7,7.51849E7,2.6789472E7,4.340149E7,2.81412E7,9.799712E6,1.104016E6,1.616512E6,1.48644E6,1.063562E7,1.410338E6,7.8332635E6,6.673609E6,6.825864E6,0E0,0E0,0E0,0E0,0E0,0E0,0E0,0E0,0E0,0E0,0E0,0E0,0E0,0E0,0E0,0E0,0E0,0E0,0E0,0E0,0E0,0E0,0E0,0E0,0E0,0E0,0E0,0E0,0E0,0E0,0E0,0E0,0E0,0E0,0E0,0E0,0E0,0E0,0E0,0E0,0E0,0E0,0E0,0E0,0E0,0E0,0E0,0E0,0E0,0E0,0E0,0E0,0E0,0E0,0E0,0E0,0E0,0E0,0E0,0E0,0E0,0E0,0E0,0E0],"parents":[2147483647,0,0,1,1,2,2,3,3,4,4,5,5,6,6,7,7,8,8,9,9,10,10,11,11,12,12,13,13,14,14,15,15,16,16,17,17,18,18,19,19,20,20,21,21,22,22,23,23,24,24,25,25,26,26,27,27,28,28,29,29,30,30,31,31,32,32,33,33,34,34,35,35,36,36,37,37,38,38,39,39,40,40,41,41,42,42,43,43,44,44,45,45,46,46,47,47,48,48,49,49,50,50,51,51,52,52,53,53,54,54,55,55,56,56,57,57,58,58,59,59,60,60,61,61,62,62],"right_children":[2,4,6,8,10,12,14,16,18,20,22,24,26,28,30,32,34,36,38,40,42,44,46,48,50,52,54,56,58,60,62,64,66,68,70,72,74,76,78,80,82,84,86,88,90,92,94,96,98,100,102,104,106,108,110,112,114,116,118,120,122,124,126,-1,-1,-1,-1,-1,-1,-1,-1,-1,-1,-1,-1,-1,-1,-1,-1,-1,-1,-1,-1,-1,-1,-1,-1,-1,-1,-1,-1,-1,-1,-1,-1,-1,-1,-1,-1,-1,-1,-1,-1,-1,-1,-1,-1,-1,-1,-1,-1,-1,-1,-1,-1,-1,-1,-1,-1,-1,-1,-1,-1,-1,-1,-1,-1],"split_conditions":[1.29E3,-2.5881904E-1,5E0,1.1535587E3,1.05E3,-2.5881904E-1,1.4254166E3,1.4026225E2,1.4127546E3,8.88E2,1.902E3,1.5494253E3,1.74E3,1.120106E3,2.098E3,9E0,3.63E2,4E0,4.7880695E2,7.44E2,1.73E3,5E0,7.0710677E-1,1.2236245E3,1.7951825E3,6.234898E-1,2.11E3,9.640185E2,1.554E3,9E0,1.5871841E3,4E0,8.893117E2,5E0,1.68E1,5E0,-5E-1,1.242E3,-5E-1,1.0943983E3,2.01E3,5E0,7.0710677E-1,6.123234E-17,1.4399076E3,2.5881904E-1,2.36E3,3.63E2,1.3685085E3,1.53E3,1.01E1,1.53E3,1E0,6.234898E-1,2.448E3,8.6354095E2,1.0477098E3,2.015E3,1.2438733E3,1.6313256E3,8.660254E-1,1.4127546E3,1.18E1,-1.8198448E1,-1.7000256E0,-2.0999159E1,-1.5369182E1,6.426348E-1,-1.2180518E1,-2.9300104E1,8.902818E0,2.354074E1,-3.2462463E0,1.0402519E1,3.71125E0,1.8175215E1,9.582544E0,2.3057934E1,1.5648455E1,-2.4968168E1,-2.2180113E1,-1.9313036E1,-5.3327365E0,-1.5158925E1,-1.7892128E1,1.364135E0,-1.2505487E1,-6.8785872E0,-1.099956E1,-1.5100154E1,-1.1504359E1,8.030463E0,-4.260315E-1,-8.544776E0,-2.732723E0,2.0109458E0,-2.4803589E1,1.0106351E1,1.6846085E1,2.6993473E1,1.8561085E1,3.0076635E1,4.0466496E1,-4.0163565E0,1.9974304E0,1.075051E-1,1.0810996E1,9.666633E0,2.1987309E1,1.9035528E1,2.8418076E1,-2.025228E1,-1.5485265E1,-1.2560728E1,-9.765632E0,-1.1084453E1,-7.730349E0,-6.3589325E0,-2.4969118E0,-8.1393E0,-5.14941E0,1.7916552E0,-5.417705E0,-1.6963291E0,3.768257E0,8.615508E0,1.4304988E1],"split_indices":[34,6,22,16,34,6,36,37,16,34,32,16,34,16,34,21,23,26,37,34,32,22,6,16,16,8,34,16,34,21,16,23,16,22,1,22,6,32,6,16,32,22,6,6,16,6,32,23,16,32,12,34,28,8,34,16,16,18,16,16,6,16,12,0,0,0,0,0,0,0,0,0,0,0,0,0,0,0,0,0,0,0,0,0,0,0,0,0,0,0,0,0,0,0,0,0,0,0,0,0,0,0,0,0,0,0,0,0,0,0,0,0,0,0,0,0,0,0,0,0,0,0,0,0,0,0,0],"split_type":[0,0,0,0,0,0,0,0,0,0,0,0,0,0,0,0,0,0,0,0,0,0,0,0,0,0,0,0,0,0,0,0,0,0,0,0,0,0,0,0,0,0,0,0,0,0,0,0,0,0,0,0,0,0,0,0,0,0,0,0,0,0,0,0,0,0,0,0,0,0,0,0,0,0,0,0,0,0,0,0,0,0,0,0,0,0,0,0,0,0,0,0,0,0,0,0,0,0,0,0,0,0,0,0,0,0,0,0,0,0,0,0,0,0,0,0,0,0,0,0,0,0,0,0,0,0,0],"sum_hessian":[1.1976E5,5.2728E4,6.7032E4,4.914E3,4.7814E4,4.589E4,2.1142E4,2.102E3,2.812E3,2.5166E4,2.2648E4,2.7688E4,1.8202E4,1.2411E4,8.731E3,7.3E2,1.372E3,1.762E3,1.05E3,8.981E3,1.6185E4,1.6293E4,6.355E3,1.2008E4,1.568E4,1.2496E4,5.706E3,2.777E3,9.634E3,3.498E3,5.233E3,1.53E2,5.77E2,1.337E3,3.5E1,1.26E2,1.636E3,3.3E2,7.2E2,2.239E3,6.742E3,1.3536E4,2.649E3,1.0399E4,5.894E3,1.132E3,5.223E3,2.395E3,9.613E3,8.489E3,7.191E3,7.872E3,4.624E3,3.965E3,1.741E3,6.16E2,2.161E3,1.93E3,7.704E3,1.606E3,1.892E3,3.005E3,2.228E3,3.7E1,1.16E2,2.91E2,2.86E2,1.186E3,1.51E2,3.3E1,2E0,1.16E2,1E1,1.231E3,4.05E2,7.8E1,2.52E2,5.55E2,1.65E2,1.262E3,9.77E2,6.656E3,8.6E1,9.429E3,4.107E3,1.86E2,2.463E3,1.901E3,8.498E3,3.387E3,2.507E3,2.97E2,8.35E2,4.224E3,9.99E2,2.288E3,1.07E2,3.369E3,6.244E3,5.487E3,3.002E3,4.171E3,3.02E3,4.894E3,2.978E3,1.329E3,3.295E3,3.429E3,5.36E2,1.386E3,3.55E2,1.96E2,4.2E2,9.49E2,1.212E3,1.491E3,4.39E2,2.803E3,4.901E3,8.66E2,7.4E2,1.374E3,5.18E2,7.41E2,2.264E3,1.358E3,8.7E2],"tree_param":{"num_deleted":"0","num_feature":"39","num_nodes":"127","size_leaf_vector":"1"}},{"base_weights":[-1.1209768E-1,-1.7469861E2,2.7130127E2,-2.773072E2,-4.0005543E1,1.030323E2,3.976619E2,-3.4666098E2,-2.2043005E2,-1.0924838E2,2.085514E2,-2.4023037E1,1.9053629E2,2.807496E2,5.2626086E2,-4.1031216E2,-3.1569742E2,-2.481648E2,-1.05440895E2,-1.4938484E2,-5.458267E1,2.9880743E2,-2.8539597E1,-9.613289E1,3.295226E1,5.0376945E1,2.3498582E2,3.6001923E2,1.5048953E2,1.7264352E2,5.8343243E2,-4.5412473E2,-3.83171E2,-2.7433896E2,-3.3767926E2,-2.7658948E2,-2.267135E2,1.005151E2,-1.9175456E2,-1.8207977E2,-1.2625922E2,-1.0794074E2,-1.2252025E1,3.4787067E2,9.569212E1,-8.2879776E1,8.5311935E1,-1.57357E2,-6.563253E1,-4.609322E0,9.8385574E1,6.2659756E1,-4.8252725E2,2.629501E2,5.138074E1,3.1789227E2,6.2600555E2,8.1538795E1,2.3380814E2,1.07335236E2,2.647606E2,5.2594006E2,7.5899677E2,-2.4105337E1,-2.1755299E1,-1.7867176E1,-2.0396397E1,-1.5714461E1,-8.623911E0,-1.1794622E1,-1.7135298E1,-1.5236893E1,-1.3002294E1,-1.2690794E1,-1.0513316E1,-3.6153982E0,8.934067E0,-1.3379448E1,-5.8380966E0,-1.2700167E1,-8.658717E0,-1.1453313E0,-7.1152916E0,-9.69476E0,-4.5305276E0,-1.2134768E0,1.8197191E1,1.1401404E1,2.3549131E1,-1.5839182E0,9.851798E0,-8.178094E0,-2.154824E0,2.2620895E0,1.4561038E1,-7.627357E0,-2.2516224E1,-4.291471E0,-1.4086151E0,-2.1471336E0,2.1195962E0,1.8566331E0,7.0353255E0,-4.527698E0,4.268478E0,1.0512832E1,-2.539289E1,7.507586E0,1.4871337E1,3.285122E0,-3.459432E0,1.145185E1,1.8762072E1,3.703685E1,2.0004805E1,3.5684605E0,1.4141133E1,1.4785031E0,1.3935452E1,2.3307133E0,6.9793053E0,1.1567526E1,1.777532E1,2.39621E1,2.8670364E1,3.399403E1,4.1834423E1],"categories":[],"categories_nodes":[],"categories_segments":[],"categories_sizes":[],"default_left":[0,0,0,0,0,0,0,0,0,0,0,0,0,0,0,0,0,0,0,0,0,0,0,0,0,0,0,0,0,0,0,0,0,0,0,0,0,0,0,0,0,0,0,0,0,0,0,0,0,0,0,0,0,0,0,0,0,0,0,0,0,0,0,0,0,0,0,0,0,0,0,0,0,0,0,0,0,0,0,0,0,0,0,0,0,0,0,0,0,0,0,0,0,0,0,0,0,0,0,0,0,0,0,0,0,0,0,0,0,0,0,0,0,0,0,0,0,0,0,0,0,0,0,0,0,0,0],"id":12,"left_children":[1,3,5,7,9,11,13,15,17,19,21,23,25,27,29,31,33,35,37,39,41,43,45,47,49,51,53,55,57,59,61,63,65,67,69,71,73,75,77,79,81,83,85,87,89,91,93,95,97,99,101,103,105,107,109,111,113,115,117,119,121,123,125,-1,-1,-1,-1,-1,-1,-1,-1,-1,-1,-1,-1,-1,-1,-1,-1,-1,-1,-1,-1,-1,-1,-1,-1,-1,-1,-1,-1,-1,-1,-1,-1,-1,-1,-1,-1,-1,-1,-1,-1,-1,-1,-1,-1,-1,-1,-1,-1,-1,-1,-1,-1,-1,-1,-1,-1,-1,-1,-1,-1,-1,-1,-1,-1],"loss_changes":[5.698202E9,1.0113851E9,1.0008517E9,1.6377242E8,5.4464096E8,2.2447398E8,4.0404787E8,3.675315E7,7.276416E7,5.429552E7,1.4755386E8,3.3836496E7,7.447421E7,1.4537242E8,2.5869542E8,7.104704E6,1.1357056E7,1.1149312E7,7.889502E7,1.0767232E7,2.3669662E7,4.973437E7,1.1774199E7,6.777516E6,1.1308694E7,1.8881452E7,4.6591296E7,9.790246E7,3.0601144E7,1.069812E7,1.1082214E8,1.033408E6,2.275008E6,1.7753312E7,4.124416E6,3.601408E6,4.620416E6,1.7723126E7,1.7752064E7,3.741424E6,1.3864768E7,6.888252E6,2.643371E7,5.923344E7,1.2565934E7,4.127174E6,5.061065E6,1.633536E6,1.834559E6,5.2700355E6,4.344622E6,9.805866E6,1.24744E6,3.0588288E7,2.0783818E6,3.843808E7,3.0702656E7,5.952884E6,2.212012E7,2.039922E6,2.158276E6,1.8132224E7,1.612544E7,0E0,0E0,0E0,0E0,0E0,0E0,0E0,0E0,0E0,0E0,0E0,0E0,0E0,0E0,0E0,0E0,0E0,0E0,0E0,0E0,0E0,0E0,0E0,0E0,0E0,0E0,0E0,0E0,0E0,0E0,0E0,0E0,0E0,0E0,0E0,0E0,0E0,0E0,0E0,0E0,0E0,0E0,0E0,0E0,0E0,0E0,0E0,0E0,0E0,0E0,0E0,0E0,0E0,0E0,0E0,0E0,0E0,0E0,0E0,0E0,0E0,0E0,0E0,0E0],"parents":[2147483647,0,0,1,1,2,2,3,3,4,4,5,5,6,6,7,7,8,8,9,9,10,10,11,11,12,12,13,13,14,14,15,15,16,16,17,17,18,18,19,19,20,20,21,21,22,22,23,23,24,24,25,25,26,26,27,27,28,28,29,29,30,30,31,31,32,32,33,33,34,34,35,35,36,36,37,37,38,38,39,39,40,40,41,41,42,42,43,43,44,44,45,45,46,46,47,47,48,48,49,49,50,50,51,51,52,52,53,53,54,54,55,55,56,56,57,57,58,58,59,59,60,60,61,61,62,62],"right_children":[2,4,6,8,10,12,14,16,18,20,22,24,26,28,30,32,34,36,38,40,42,44,46,48,50,52,54,56,58,60,62,64,66,68,70,72,74,76,78,80,82,84,86,88,90,92,94,96,98,100,102,104,106,108,110,112,114,116,118,120,122,124,126,-1,-1,-1,-1,-1,-1,-1,-1,-1,-1,-1,-1,-1,-1,-1,-1,-1,-1,-1,-1,-1,-1,-1,-1,-1,-1,-1,-1,-1,-1,-1,-1,-1,-1,-1,-1,-1,-1,-1,-1,-1,-1,-1,-1,-1,-1,-1,-1,-1,-1,-1,-1,-1,-1,-1,-1,-1,-1,-1,-1,-1,-1,-1,-1],"split_conditions":[1.578E3,1.178E3,1.60975E3,9.8E2,1E0,-4.3388373E-1,2.334E3,8.4E2,1E0,1.378E3,1.48E3,1.3616094E3,1.3815E3,1.596E3,-7.818315E-1,7.44E2,2E0,1.066E3,1.188E3,-4.3388373E-1,-4.3388373E-1,1.8E1,1.324E3,1.2275974E3,-7.818315E-1,3.63E2,1.8E1,1E0,1.882E3,1.7073312E3,2.764E3,6.6E2,3E0,7E0,2E0,-4.3388373E-1,-4.3388373E-1,1.0555E3,6E0,1.0392656E3,1.444E3,1.1535587E3,1.788E3,1.3555834E3,1.6583356E3,6E0,1.578E3,3.64E2,-7.818315E-1,1.48225E3,1.4562732E3,1.2171666E3,1.66E1,1.3547515E3,1.286E3,2.042E3,1.7E1,1E0,-4.3388373E-1,1.5365673E3,1.883612E3,2.512E3,2.0965E3,-2.4105337E1,-2.1755299E1,-1.7867176E1,-2.0396397E1,-1.5714461E1,-8.623911E0,-1.1794622E1,-1.7135298E1,-1.5236893E1,-1.3002294E1,-1.2690794E1,-1.0513316E1,-3.6153982E0,8.934067E0,-1.3379448E1,-5.8380966E0,-1.2700167E1,-8.658717E0,-1.1453313E0,-7.1152916E0,-9.69476E0,-4.5305276E0,-1.2134768E0,1.8197191E1,1.1401404E1,2.3549131E1,-1.5839182E0,9.851798E0,-8.178094E0,-2.154824E0,2.2620895E0,1.4561038E1,-7.627357E0,-2.2516224E1,-4.291471E0,-1.4086151E0,-2.1471336E0,2.1195962E0,1.8566331E0,7.0353255E0,-4.527698E0,4.268478E0,1.0512832E1,-2.539289E1,7.507586E0,1.4871337E1,3.285122E0,-3.459432E0,1.145185E1,1.8762072E1,3.703685E1,2.0004805E1,3.5684605E0,1.4141133E1,1.4785031E0,1.3935452E1,2.3307133E0,6.9793053E0,1.1567526E1,1.777532E1,2.39621E1,2.8670364E1,3.399403E1,4.1834423E1],"split_indices":[15,15,36,15,8,7,15,15,8,15,33,16,36,33,7,15,22,15,33,7,7,21,15,16,7,23,21,8,15,16,15,15,22,21,26,7,7,36,21,16,33,16,34,36,16,21,34,23,7,36,16,36,13,16,33,15,21,8,7,16,16,15,36,0,0,0,0,0,0,0,0,0,0,0,0,0,0,0,0,0,0,0,0,0,0,0,0,0,0,0,0,0,0,0,0,0,0,0,0,0,0,0,0,0,0,0,0,0,0,0,0,0,0,0,0,0,0,0,0,0,0,0,0,0,0,0,0],"split_type":[0,0,0,0,0,0,0,0,0,0,0,0,0,0,0,0,0,0,0,0,0,0,0,0,0,0,0,0,0,0,0,0,0,0,0,0,0,0,0,0,0,0,0,0,0,0,0,0,0,0,0,0,0,0,0,0,0,0,0,0,0,0,0,0,0,0,0,0,0,0,0,0,0,0,0,0,0,0,0,0,0,0,0,0,0,0,0,0,0,0,0,0,0,0,0,0,0,0,0,0,0,0,0,0,0,0,0,0,0,0,0,0,0,0,0,0,0,0,0,0,0,0,0,0,0,0,0],"sum_hessian":[1.20251E5,7.3179E4,4.7072E4,4.1536E4,3.1643E4,2.0189E4,2.6883E4,1.8713E4,2.2823E4,2.4749E4,6.894E3,8.234E3,1.1955E4,1.4083E4,1.28E4,6.12E3,1.2593E4,1.8387E4,4.436E3,1.427E4,1.0479E4,4.993E3,1.901E3,3.634E3,4.6E3,2.879E3,9.076E3,8.754E3,5.329E3,1.782E3,1.1018E4,2.335E3,3.785E3,4.375E3,8.218E3,7.903E3,1.0484E4,1.31E3,3.126E3,5.909E3,8.361E3,4.635E3,5.844E3,4.021E3,9.72E2,1.287E3,6.14E2,1.207E3,2.427E3,2.923E3,1.677E3,2.815E3,6.4E1,7.876E3,1.2E3,7.559E3,1.195E3,2.917E3,2.412E3,1.044E3,7.38E2,8.303E3,2.715E3,9.35E2,1.4E3,1.86E3,1.925E3,3.141E3,1.234E3,3.89E2,7.829E3,2.919E3,4.984E3,3.954E3,6.53E3,4.08E2,9.02E2,1.553E3,1.573E3,6.48E2,5.261E3,1.124E3,7.237E3,7.76E2,3.859E3,5.664E3,1.8E2,2.039E3,1.982E3,4.31E2,5.41E2,4.24E2,8.63E2,5.15E2,9.9E1,1.189E3,1.8E1,1.576E3,8.51E2,1.61E3,1.313E3,6.86E2,9.91E2,3.63E2,2.452E3,2E0,6.2E1,1.845E3,6.031E3,1.073E3,1.27E2,2.967E3,4.592E3,7.91E2,4.04E2,2.778E3,1.39E2,4.35E2,1.977E3,3.63E2,6.81E2,5.42E2,1.96E2,4.191E3,4.112E3,1.35E3,1.365E3],"tree_param":{"num_deleted":"0","num_feature":"39","num_nodes":"127","size_leaf_vector":"1"}},{"base_weights":[-5.3226024E-1,-1.743926E2,2.4520052E2,-2.606682E2,-3.9484856E1,7.293475E1,3.5575452E2,-3.234798E2,-2.0170071E2,1.669139E2,-1.3180211E2,-3.6628105E1,1.5846848E2,4.736506E2,2.3330704E2,-3.842351E2,-2.9249023E2,-1.2513671E0,-2.1123546E2,3.132787E2,1.4689543E1,-2.3602641E2,-1.1252303E2,-1.14505196E2,4.043256E0,1.53667755E1,1.9773311E2,1.4764806E2,5.3522363E2,1.5719897E2,3.7858566E2,-4.324655E2,-3.5987686E2,-1.1105339E2,-2.997217E2,-9.353494E1,1.9720563E2,-2.2587428E2,-1.3526118E2,7.0778015E1,3.835791E2,1.1243983E2,-6.718661E1,-3.196555E2,-2.0715489E2,-1.4845944E2,-6.944914E1,-1.6744595E2,-9.0003525E1,-1.7879873E1,8.767594E1,-1.8657585E2,5.4434715E1,2.6359546E2,8.972938E1,5.333305E1,2.275551E2,4.5707504E2,6.8357056E2,2.4015395E2,9.330789E1,1.4727055E2,4.1131674E2,-2.3037207E1,-2.0800417E1,-1.0385249E1,-1.8302738E1,-1.4275275E1,2.4027429E0,-1.3447461E1,-1.5734047E1,-1.0905242E1,-1.8297068E0,2.5567076E1,6.491188E0,-1.1724429E1,-8.00991E0,-4.926216E0,-8.585206E0,-8.55226E0,9.19558E0,1.4438278E1,2.3628027E1,-1.308936E0,8.39123E0,-4.609028E0,2.4778774E0,-1.8685825E1,-1.487401E1,-9.54975E0,-1.4272801E1,-9.944888E0,-6.3141866E0,-5.2269645E0,-2.933173E-1,-8.188105E0,-1.9746855E1,-3.2397594E0,-6.067101E0,-2.7613708E-1,-6.140552E0,3.3906968E0,7.1385536E0,-2.067365E1,-5.850905E0,2.998701E0,-1.8935034E1,2.3760363E1,1.1866157E1,6.923328E0,1.502042E0,1.135482E0,6.617748E0,8.911758E0,1.462279E1,1.8994703E1,2.5176958E1,2.9461216E1,3.8397E1,9.9431305E0,2.052387E1,1.597742E0,7.473118E0,4.4542522E0,1.15586E1,1.8523458E1,2.7273573E1],"categories":[],"categories_nodes":[],"categories_segments":[],"categories_sizes":[],"default_left":[0,0,0,0,0,0,0,0,0,0,0,0,0,0,0,0,0,0,0,0,0,0,0,0,0,0,0,0,0,0,0,0,0,0,0,0,0,0,0,0,0,0,0,0,0,0,0,0,0,0,0,0,0,0,0,0,0,0,0,0,0,0,0,0,0,0,0,0,0,0,0,0,0,0,0,0,0,0,0,0,0,0,0,0,0,0,0,0,0,0,0,0,0,0,0,0,0,0,0,0,0,0,0,0,0,0,0,0,0,0,0,0,0,0,0,0,0,0,0,0,0,0,0,0,0,0,0],"id":13,"left_children":[1,3,5,7,9,11,13,15,17,19,21,23,25,27,29,31,33,35,37,39,41,43,45,47,49,51,53,55,57,59,61,63,65,67,69,71,73,75,77,79,81,83,85,87,89,91,93,95,97,99,101,103,105,107,109,111,113,115,117,119,121,123,125,-1,-1,-1,-1,-1,-1,-1,-1,-1,-1,-1,-1,-1,-1,-1,-1,-1,-1,-1,-1,-1,-1,-1,-1,-1,-1,-1,-1,-1,-1,-1,-1,-1,-1,-1,-1,-1,-1,-1,-1,-1,-1,-1,-1,-1,-1,-1,-1,-1,-1,-1,-1,-1,-1,-1,-1,-1,-1,-1,-1,-1,-1,-1,-1],"loss_changes":[5.12157E9,8.17135E8,9.459607E8,1.5853696E8,5.2183936E8,1.8197808E8,4.366533E8,3.892352E7,4.2217024E7,1.8857571E8,3.799635E7,2.6967432E7,6.127037E7,3.0930534E8,1.6405766E8,8.067968E6,1.798656E7,1.8406024E7,2.3420736E7,7.353456E7,3.3221734E7,7.063792E6,2.4711536E7,3.773864E6,1.0258112E7,1.8542552E7,6.0845504E7,1.8452132E7,1.4998093E8,5.1611024E7,3.856768E7,8.99232E5,4.302016E6,1.4669292E7,5.995008E6,4.8578915E6,6.685911E6,9.96384E6,4.547048E6,2.659639E7,2.8084128E7,1.4529952E7,6.596098E6,7.95128E5,2.726688E6,9.712592E6,1.621078E7,7.08842E5,1.571331E6,5.747363E6,1.261895E6,5.964732E6,4.746874E6,2.9436128E7,9.42989E6,2.719405E6,4.192264E6,3.0269568E7,3.5136256E7,2.9723728E7,1.8961312E7,3.074498E6,2.4287616E7,0E0,0E0,0E0,0E0,0E0,0E0,0E0,0E0,0E0,0E0,0E0,0E0,0E0,0E0,0E0,0E0,0E0,0E0,0E0,0E0,0E0,0E0,0E0,0E0,0E0,0E0,0E0,0E0,0E0,0E0,0E0,0E0,0E0,0E0,0E0,0E0,0E0,0E0,0E0,0E0,0E0,0E0,0E0,0E0,0E0,0E0,0E0,0E0,0E0,0E0,0E0,0E0,0E0,0E0,0E0,0E0,0E0,0E0,0E0,0E0,0E0,0E0,0E0,0E0],"parents":[2147483647,0,0,1,1,2,2,3,3,4,4,5,5,6,6,7,7,8,8,9,9,10,10,11,11,12,12,13,13,14,14,15,15,16,16,17,17,18,18,19,19,20,20,21,21,22,22,23,23,24,24,25,25,26,26,27,27,28,28,29,29,30,30,31,31,32,32,33,33,34,34,35,35,36,36,37,37,38,38,39,39,40,40,41,41,42,42,43,43,44,44,45,45,46,46,47,47,48,48,49,49,50,50,51,51,52,52,53,53,54,54,55,55,56,56,57,57,58,58,59,59,60,60,61,61,62,62],"right_children":[2,4,6,8,10,12,14,16,18,20,22,24,26,28,30,32,34,36,38,40,42,44,46,48,50,52,54,56,58,60,62,64,66,68,70,72,74,